\data\
ngram 1=6067
ngram 2=18043
ngram 3=20359
ngram 4=18598

\1-grams:
-0.5001714	<unk>
-inf	<s>	-0.87567395
-1.0146927	</s>
-2.72127	do	-0.2988066
-3.244323	n't	-0.09884638
-3.8984072	ask	-0.050543457
-2.6301756	me	-0.18052697
-1.7964945	to	-0.20445353
-4.149158	carry	-0.050543427
-2.5216703	an	-0.07610065
-4.397137	oily	-0.050543427
-4.149158	rag	-0.050543427
-2.72127	like	-0.18610358
-2.3254623	that	-0.13474357
-3.8984072	.	-0.4274976
-4.750035	dolphins	-0.050543457
-2.1870854	are	-0.15217176
-4.750035	intelligent	-0.050543457
-3.8984072	marine	-0.050543457
-4.750035	mammals	-0.050543457
-1.7659571	the	-0.09343462
-3.2040064	saw	-0.08973251
-1.9678811	is	-0.20731568
-4.397137	broken	-0.050543457
-2.6621392	so	-0.106913485
-4.397137	chop	-0.050543457
-4.397137	wood	-0.050543457
-4.149158	instead	-0.10716594
-4.750035	mudwagon	-0.050543457
-2.7473776	had	-0.14160793
-4.397137	caught	-0.050543457
-3.6248827	fire	-0.050543427
-2.8535347	also	-0.06969611
-2.7751553	my	-0.06787235
-4.397137	sincere	-0.050543457
-4.397137	wish	-0.050543457
-2.1414316	he	-0.19452305
-4.750035	continues	-0.050543457
-3.5336893	add	-0.07480262
-2.5216703	this	-0.06896574
-3.8984072	record	-0.050543457
-4.750035	sets	-0.050543457
-2.9943366	here	-0.09847082
-3.394188	today	-0.2504978
-4.750035	severe	-0.050543457
-4.750035	myopia	-0.050543457
-4.397137	contributed	-0.17229345
-4.750035	ron	-0.050543457
-2.3682427	's	-0.073657624
-4.750035	inferiority	-0.050543457
-4.750035	complex	-0.050543457
-2.7341278	what	-0.1527249
-3.6248827	large	-0.050543457
-3.6248827	thing	-0.14135335
-2.373899	by	-0.13775226
-4.750035	ironing	-0.050543457
-4.750035	board	-0.050543457
-4.397137	cement	-0.050543457
-4.149158	measured	-0.050543427
-1.881048	in	-0.25976962
-4.750035	cubic	-0.050543457
-4.397137	yards	-0.050543457
-2.5379746	she	-0.16291812
-2.7341278	your	-0.05499002
-3.4583611	dark	-0.050543427
-4.750035	suit	-0.050543457
-4.750035	greasy	-0.050543457
-4.397137	wash	-0.050543457
-3.6248827	water	-0.12890813
-2.5636396	all	-0.095243886
-3.5336893	year	-0.19934529
-1.9460832	a	-0.10493291
-4.149158	tiny	-0.050543427
-4.397137	handful	-0.050543457
-2.9712057	never	-0.06030449
-2.6966436	did	-0.28725055
-2.9492445	make	-0.10491363
-4.750035	concert	-0.050543457
-3.0721903	often	-0.050543457
-2.3254623	you	-0.20374113
-3.4583611	'll	-0.11985854
-3.0721903	get	-0.100211106
-2.9492445	back	-0.1851696
-2.8366864	more	-0.09429378
-3.044659	than	-0.1326996
-3.244323	put	-0.18825293
-4.750035	herb	-0.050543457
-4.149158	birthday	-0.050543427
-4.397137	occurs	-0.050543457
-3.8984072	frequently	-0.050543457
-2.2177687	on	-0.3305297
-4.750035	thanksgiving	-0.050543457
-4.149158	regular	-0.050543457
-4.750035	attendance	-0.050543457
-3.8984072	seldom	-0.050543457
-4.397137	required	-0.050543457
-4.149158	orange	-0.12780866
-4.149158	juice	-0.10716594
-4.750035	tastes	-0.050543457
-4.750035	funny	-0.050543457
-3.1671166	after	-0.077932544
-4.149158	toothpaste	-0.12780866
-3.5336893	top	-0.050543457
-4.750035	zinnias	-0.050543457
-4.149158	rarely	-0.050543427
-2.610103	have	-0.15167913
-4.149158	crooked	-0.050543427
-4.397137	stems	-0.050543457
-2.2339637	it	-0.23393583
-4.149158	happy	-0.050543427
-4.397137	buzzing	-0.050543457
-4.750035	crowd	-0.050543457
-3.044659	new	-0.050543457
-3.8984072	birth	-0.10716594
-4.750035	miraculous	-0.050543457
-1.7257507	and	-0.09755083
-4.397137	mysterious	-0.050543457
-2.9712057	there	-0.20030545
-3.0187695	many	-0.06598223
-2.9712057	such	-0.20800383
-4.750035	competently	-0.050543457
-4.750035	anonymous	-0.050543457
-4.750035	performances	-0.050543457
-4.149158	among	-0.050543427
-4.397137	earlier	-0.050543427
-4.397137	poems	-0.050543457
-1.7603763	of	-0.19492604
-4.397137	course	-0.050543457
-2.673339	can	-0.16201994
-3.288769	another	-0.050543457
-4.750035	tunafish	-0.050543457
-4.750035	sandwich	-0.050543457
-2.5725431	but	-0.12888558
-3.1331165	every	-0.050543457
-3.8984072	period	-0.22459614
-2.7087824	has	-0.20007978
-3.4583611	been	-0.05848021
-4.750035	humanism	-0.050543457
-4.750035	bob	-0.050543427
-3.4583611	found	-0.09523541
-4.750035	clams	-0.050543457
-2.428424	at	-0.21659417
-4.750035	ocean	-0.050543457
-3.8984072	edge	-0.10716594
-2.9712057	good	-0.07078774
-3.0721903	man	-0.17765592
-4.397137	chortled	-0.050543457
-4.750035	appreciatively	-0.050543457
-4.397137	decided	-0.050543457
-4.397137	trip	-0.050543457
-2.268286	was	-0.12211014
-4.149158	worth	-0.050543427
-2.362659	his	-0.099460974
-2.889329	time	-0.24558954
-2.9283407	only	-0.06446397
-3.0721903	then	-0.087746054
-4.149158	decide	-0.050543427
-3.8984072	want	-0.09523541
-2.72127	one	-0.12190685
-4.149158	technical	-0.050543427
-4.750035	writers	-0.050543457
-4.750035	abbreviate	-0.050543457
-4.397137	bibliographies	-0.050543457
-3.3382876	keep	-0.08973251
-3.8984072	thermometer	-0.050543457
-3.6248827	under	-0.050543427
-4.397137	tongue	-0.050543457
-4.750035	addition	-0.050543457
-4.750035	subtraction	-0.050543457
-4.750035	learned	-0.050543457
-4.750035	skills	-0.050543457
-2.8710632	some	-0.064022124
-4.750035	observers	-0.050543457
-4.750035	speculated	-0.050543457
-3.288769	might	-0.10253844
-2.673339	be	-0.0902423
-4.750035	revenge	-0.050543457
-3.1671166	home	-0.24079467
-3.8984072	town	-0.15852182
-2.8366864	our	-0.055396535
-4.397137	experiment	-0.050543457
-4.149158	positive	-0.050543427
-4.750035	outcome	-0.050543457
-4.750035	unexpected	-0.050543457
-4.750035	moth	-0.050543457
-4.750035	zigzagged	-0.050543457
-3.4583611	along	-0.12890813
-4.750035	path	-0.050543457
-3.0187695	through	-0.19323593
-4.750035	otto	-0.050543457
-4.397137	garden	-0.12780866
-3.288769	how	-0.079561576
-4.397137	ancient	-0.050543457
-4.397137	subway	-0.050543457
-4.750035	escalator	-0.050543457
-4.397137	push	-0.050543457
-2.590917	up	-0.20266572
-4.750035	repeat	-0.050543457
-4.149158	afraid	-0.050543427
-4.149158	lose	-0.050543457
-3.5336893	job	-0.11946921
-2.804832	if	-0.29641792
-3.8984072	mouth	-0.050543457
-3.740458	shut	-0.09523541
-2.4907906	we	-0.13413513
-3.288769	got	-0.10356775
-4.750035	drenched	-0.050543457
-2.5137422	from	-0.20376468
-4.750035	uninterrupted	-0.050543457
-3.8984072	rain	-0.22459614
-4.750035	rob	-0.050543457
-2.9712057	made	-0.1727235
-4.750035	hungarian	-0.050543457
-4.750035	goulash	-0.050543457
-2.1414316	for	-0.16068034
-3.8984072	dinner	-0.32150614
-4.750035	gooseberry	-0.050543457
-3.8984072	pie	-0.050543457
-4.397137	dessert	-0.17229345
-4.750035	thinker	-0.050543457
-4.397137	famous	-0.050543427
-4.397137	sculpture	-0.050543457
-3.1015859	i	-0.068609625
-4.149158	assume	-0.050543427
-4.397137	moisture	-0.050543457
-2.673339	will	-0.11303277
-4.397137	damage	-0.050543457
-4.149158	ship	-0.050543427
-4.750035	hull	-0.050543457
-2.8710632	these	-0.06030449
-4.750035	hardy	-0.050543457
-4.750035	travelers	-0.050543457
-2.684835	not	-0.09161192
-4.750035	unappreciated	-0.050543457
-4.750035	holiday	-0.050543457
-4.750035	aprons	-0.050543457
-3.8984072	available	-0.050543457
-2.9492445	us	-0.2705466
-4.750035	roy	-0.050543457
-4.149158	ignored	-0.30255884
-4.750035	spurious	-0.050543457
-3.4583611	data	-0.16192402
-4.149158	points	-0.12780866
-4.750035	drawing	-0.050543457
-4.397137	graph	-0.050543457
-4.750035	wishful	-0.050543457
-4.149158	thinking	-0.050543427
-3.4583611	wo	-0.7285276
-3.6248827	change	-0.087460026
-3.394188	almost	-0.050543457
-4.397137	colleges	-0.050543457
-2.7897403	now	-0.14334136
-4.750035	coeducational	-0.050543457
-4.397137	resolved	-0.050543457
-4.750035	antislavery	-0.050543457
-4.750035	sentiment	-0.050543457
-4.750035	becoming	-0.050543457
-4.397137	ripe	-0.050543457
-4.750035	resolute	-0.050543457
-3.740458	action	-0.5244076
-3.5336893	thick	-0.077932544
-4.397137	elm	-0.050543457
-4.397137	forest	-0.050543457
-3.740458	nearly	-0.050543457
-4.750035	overwhelmed	-0.050543457
-4.750035	dutch	-0.050543457
-4.750035	disease	-0.050543457
-4.397137	careful	-0.050543427
-4.750035	plow	-0.050543457
-2.9712057	over	-0.28579777
-4.397137	flower	-0.050543457
-4.149158	beds	-0.050543427
-4.397137	successors	-0.050543457
-3.8984072	easier	-0.050543457
-4.149158	task	-0.12780866
-3.740458	rich	-0.087460026
-3.394188	looked	-0.101185404
-4.750035	spotted	-0.050543457
-4.750035	hyenas	-0.050543457
-4.750035	jaguars	-0.050543457
-4.750035	safari	-0.050543457
-4.750035	misprint	-0.050543457
-4.750035	provoked	-0.050543457
-4.149158	immediate	-0.050543427
-4.750035	disclaimer	-0.050543457
-4.750035	artistic	-0.050543457
-4.750035	accomplishments	-0.050543457
-4.750035	guaranteed	-0.050543457
-2.4834018	him	-0.23895065
-4.750035	entry	-0.050543457
-2.72127	into	-0.17361629
-2.8710632	any	-0.06321758
-3.5336893	social	-0.050543427
-4.397137	gathering	-0.050543457
-4.397137	speech	-0.050543457
-4.750035	symposium	-0.050543457
-3.8984072	begin	-0.050543457
-4.149158	monday	-0.050543427
-2.5137422	they	-0.15571359
-3.740458	're	-0.06787235
-3.5336893	going	-0.28346056
-4.750035	louse	-0.050543457
-3.740458	below	-0.050543457
-4.750035	specific	-0.050543457
-4.750035	guide	-0.050543457
-4.750035	keyed	-0.050543457
-4.750035	calendar	-0.050543457
-3.0721903	long	-0.068609625
-3.8984072	run	-0.050543457
-4.750035	pays	-0.050543457
-3.5336893	buy	-0.050543457
-3.8984072	quality	-0.050543457
-4.750035	clothing	-0.050543457
-4.397137	significant	-0.050543457
-3.8984072	advance	-0.050543457
-2.9283407	its	-0.050543457
-4.750035	import	-0.050543457
-2.9712057	should	-0.20365301
-4.750035	exaggerated	-0.050543457
-4.397137	draw	-0.050543427
-3.044659	each	-0.075126745
-4.750035	axis	-0.050543457
-4.750035	carl	-0.050543457
-4.397137	lives	-0.17229345
-4.397137	lively	-0.050543457
-4.750035	bury	-0.050543457
-3.244323	those	-0.050543457
-4.750035	uniforms	-0.050543457
-4.397137	parties	-0.050543457
-4.750035	cupcakes	-0.050543457
-3.8984072	ice	-0.10716594
-3.6248827	cream	-0.050543427
-3.1671166	always	-0.050543427
-4.397137	jokes	-0.050543457
-2.8366864	about	-0.09745716
-3.044659	too	-0.10089046
-3.2040064	much	-0.06186589
-4.750035	garlic	-0.050543457
-4.397137	food	-0.050543457
-4.750035	official	-0.050543457
-4.750035	deadline	-0.050543457
-4.397137	postponed	-0.050543457
-4.149158	slipped	-0.050543427
-3.8984072	outside	-0.050543457
-4.397137	hugging	-0.050543457
-4.397137	walls	-0.12780866
-4.750035	buildings	-0.050543457
-4.750035	dodging	-0.050543457
-4.750035	doorways	-0.050543457
-4.750035	stag	-0.050543457
-4.397137	surely	-0.050543427
-4.397137	finds	-0.050543457
-3.244323	big	-0.050543427
-4.750035	fawn	-0.050543457
-3.394188	know	-0.079821415
-3.8984072	meet	-0.050543457
-2.4550436	her	-0.0859269
-3.740458	early	-0.050543457
-3.044659	enough	-0.12425051
-3.6248827	curiosity	-0.15852182
-4.750035	mediocrity	-0.050543457
-4.750035	coexist	-0.050543457
-4.750035	assumed	-0.050543457
-4.750035	terrifying	-0.050543457
-4.750035	inertia	-0.050543457
-4.750035	inanimate	-0.050543457
-4.149158	matter	-0.12780866
-4.750035	firmly	-0.050543457
-4.750035	insist	-0.050543457
-2.6405709	no	-0.08068084
-4.750035	bobby	-0.050543457
-4.397137	pins	-0.050543457
-2.28189	or	-0.06431176
-3.5336893	hair	-0.077932544
-3.8984072	worn	-0.050543457
-3.5336893	allow	-0.050543457
-4.397137	atheists	-0.050543457
-4.397137	church	-0.050543457
-4.750035	spokes	-0.050543457
-3.4583611	order	-0.07480262
-3.8984072	degree	-0.10716594
-4.397137	led	-0.050543457
-4.397137	outward	-0.050543457
-4.750035	rim	-0.050543457
-3.6248827	common	-0.050543457
-4.750035	prowler	-0.050543457
-3.394188	wore	-0.18006064
-4.750035	ski	-0.050543457
-4.397137	mask	-0.050543457
-4.750035	disguise	-0.050543457
-4.397137	moment	-0.050543457
-3.8984072	truth	-0.050543457
-4.397137	crisis	-0.050543457
-4.397137	valley	-0.050543457
-4.750035	lodge	-0.050543457
-4.750035	yearly	-0.050543457
-4.750035	celebrates	-0.050543457
-3.288769	first	-0.09357919
-4.750035	calf	-0.050543457
-4.750035	born	-0.050543457
-3.5336893	girl	-0.077932544
-2.7610445	would	-0.1357577
-3.0721903	go	-0.08362391
-3.5336893	far	-0.077932544
-4.149158	fool	-0.050543427
-2.889329	could	-0.14048679
-3.8984072	kill	-0.10716594
-4.397137	correct	-0.050543457
-4.750035	execution	-0.050543457
-4.397137	instructions	-0.050543427
-4.750035	crucial	-0.050543457
-4.750035	courier	-0.050543457
-4.397137	dwarf	-0.050543457
-4.750035	salad	-0.050543457
-4.750035	dressing	-0.050543457
-4.750035	desperately	-0.050543457
-3.3382876	need	-0.14135335
-4.750035	updating	-0.050543457
-4.750035	lone	-0.050543457
-4.750035	star	-0.050543457
-4.397137	shone	-0.050543457
-3.740458	evening	-0.32150614
-4.750035	sky	-0.050543457
-4.750035	fools	-0.050543457
-4.750035	bayed	-0.050543457
-3.5336893	think	-0.0723148
-4.397137	doing	-0.050543457
-4.750035	startling	-0.050543457
-4.149158	contrast	-0.050543427
-3.5336893	system	-0.070289865
-4.750035	sullen	-0.050543457
-4.397137	satellites	-0.050543457
-4.750035	imagined	-0.050543457
-4.750035	connoisseur	-0.050543457
-3.8984072	enjoy	-0.050543457
-3.8984072	shellfish	-0.10716594
-4.397137	dish	-0.17229345
-4.750035	favorite	-0.050543457
-4.750035	grievance	-0.050543457
-4.397137	landlord	-0.17229345
-4.750035	whoever	-0.050543457
-4.750035	cooperates	-0.050543457
-4.750035	finding	-0.050543457
-4.750035	nan	-0.050543457
-4.750035	cameo	-0.050543457
-4.750035	rewarded	-0.050543457
-4.750035	easygoing	-0.050543457
-4.750035	zoologist	-0.050543457
-4.397137	relaxed	-0.050543457
-4.750035	throughout	-0.050543457
-4.750035	voyage	-0.050543457
-4.397137	fill	-0.050543457
-4.750035	canteen	-0.050543457
-2.2773077	with	-0.20080365
-3.8984072	fresh	-0.050543457
-3.5336893	spring	-0.050543457
-3.0187695	other	-0.06598223
-4.397137	pilots	-0.050543457
-2.4349275	were	-0.08066859
-4.397137	worried	-0.050543457
-3.8984072	show	-0.050543457
-4.750035	invest	-0.050543457
-3.394188	black	-0.0723148
-4.750035	zircons	-0.050543457
-4.750035	stylish	-0.050543457
-3.6248827	shoes	-0.087460026
-4.750035	origin	-0.050543457
-3.740458	state	-0.050543457
-4.750035	automobile	-0.050543457
-4.750035	practices	-0.050543457
-4.397137	trish	-0.050543457
-3.740458	hours	-0.18375848
-3.740458	movies	-0.050543457
-4.750035	saturday	-0.050543457
-4.149158	ideal	-0.050543427
-3.740458	morning	-0.09523541
-4.750035	begins	-0.050543457
-3.4583611	hot	-0.07480262
-4.397137	coffee	-0.050543457
-4.750035	inflammatory	-0.050543457
-4.149158	cells	-0.12780866
-4.750035	strikingly	-0.050543457
-4.750035	absent	-0.050543457
-4.750035	contained	-0.050543457
-4.750035	chlorine	-0.050543457
-4.750035	stung	-0.050543457
-3.2040064	eyes	-0.08566811
-4.750035	gus	-0.050543457
-4.750035	pine	-0.050543457
-4.149158	trees	-0.12780866
-4.397137	redwoods	-0.050543427
-3.740458	walk	-0.050543457
-4.750035	sequoia	-0.050543457
-4.149158	national	-0.050543427
-4.750035	instantaneous	-0.050543457
-4.750035	challenge	-0.050543457
-3.6248827	general	-0.050543427
-4.149158	intelligence	-0.050543427
-4.750035	sundown	-0.050543457
-3.5336893	quite	-0.0819902
-4.750035	honeybees	-0.050543457
-3.740458	form	-0.050543457
-4.397137	majority	-0.050543427
-4.750035	willow	-0.050543457
-4.750035	catkins	-0.050543457
-4.750035	villains	-0.050543457
-3.2040064	does	-0.18641602
-4.750035	hindu	-0.050543457
-4.750035	ideology	-0.050543457
-3.740458	honor	-0.087460026
-4.149158	cows	-0.12780866
-4.397137	annoying	-0.050543457
-4.750035	raccoons	-0.050543457
-4.750035	phil	-0.050543457
-3.6248827	night	-0.087460026
-4.750035	glue	-0.050543457
-4.750035	oozed	-0.050543457
-2.6512213	out	-0.2879593
-4.149158	tube	-0.050543427
-2.9712057	came	-0.09847082
-3.1671166	day	-0.29133528
-4.750035	reassure	-0.050543457
-4.397137	busy	-0.050543457
-3.0721903	said	-0.16002674
-4.149158	having	-0.12780866
-3.8984072	someone	-0.050543457
-4.750035	submit	-0.050543457
-4.750035	monkeygland	-0.050543457
-4.397137	operation	-0.17229345
-4.397137	shrugged	-0.050543457
-4.750035	casually	-0.050543457
-4.750035	household	-0.050543457
-3.6248827	needs	-0.050543427
-4.397137	lots	-0.17229345
-4.397137	appliances	-0.050543457
-3.6248827	child	-0.050543457
-4.750035	pop	-0.050543457
-4.750035	developing	-0.050543457
-3.8984072	film	-0.10716594
-4.750035	toxic	-0.050543457
-4.750035	chemicals	-0.050543457
-3.1671166	used	-0.16647306
-4.397137	yellow	-0.050543457
-4.750035	ointment	-0.050543457
-4.149158	ready	-0.12780866
-4.750035	diagnosis	-0.050543457
-4.750035	discouraging	-0.050543457
-3.5336893	however	-0.0723148
-4.397137	overly	-0.050543457
-4.149158	impossible	-0.12780866
-3.6248827	deal	-0.115892954
-4.750035	bureaucracy	-0.050543457
-3.288769	look	-0.10638112
-3.5336893	group	-0.050543457
-4.750035	valuables	-0.050543457
-4.750035	bank	-0.050543457
-4.750035	vault	-0.050543457
-4.149158	song	-0.050543427
-3.4583611	gave	-0.050543457
-4.750035	verbal	-0.050543457
-4.750035	footnotes	-0.050543457
-4.149158	spoke	-0.050543457
-4.149158	briefly	-0.050543427
-4.750035	sensibly	-0.050543457
-3.8984072	point	-0.050543457
-3.1671166	without	-0.050543457
-4.750035	oratorical	-0.050543457
-4.750035	flourishes	-0.050543457
-4.750035	suburbanites	-0.050543457
-4.149158	worked	-0.050543427
-3.288769	hard	-0.12860797
-4.750035	refurbishing	-0.050543457
-2.908397	their	-0.057026364
-4.750035	older	-0.050543457
-3.4583611	really	-0.050543457
-3.1015859	right	-0.16073877
-2.268286	as	-0.2834089
-4.750035	surprising	-0.050543457
-4.750035	trait	-0.050543457
-4.750035	ballplayer	-0.050543457
-4.397137	adult	-0.050543457
-4.750035	male	-0.050543457
-4.750035	baboon	-0.050543457
-3.394188	teeth	-0.16522668
-4.397137	suitable	-0.050543457
-3.8984072	eating	-0.050543457
-4.397137	agree	-0.050543457
-4.750035	essay	-0.050543457
-4.397137	barely	-0.050543427
-4.750035	intelligible	-0.050543457
-4.750035	scholastic	-0.050543457
-4.397137	aptitude	-0.050543457
-4.750035	judged	-0.050543457
-4.750035	standardized	-0.050543457
-4.149158	tests	-0.050543427
-4.750035	smash	-0.050543457
-4.750035	lightbulbs	-0.050543457
-4.750035	cash	-0.050543457
-3.6248827	value	-0.26293975
-4.750035	diminish	-0.050543457
-3.244323	nothing	-0.22600645
-4.750035	continental	-0.050543457
-4.750035	drift	-0.050543457
-4.397137	geological	-0.050543457
-3.8984072	theory	-0.050543457
-3.4583611	most	-0.050543457
-4.750035	assuredly	-0.050543457
-3.6248827	ideas	-0.18045177
-4.750035	invaluable	-0.050543457
-3.740458	room	-0.050543427
-4.397137	normal	-0.050543457
-3.0721903	even	-0.050543457
-4.750035	commonplace	-0.050543457
-3.4583611	love	-0.077932544
-4.750035	ghettos	-0.050543457
-3.6248827	gone	-0.19934529
-3.5336893	young	-0.050543457
-4.750035	mouse	-0.050543457
-4.750035	scampered	-0.050543457
-3.394188	across	-0.439031
-4.149158	field	-0.050543427
-4.397137	disappeared	-0.050543457
-4.750035	tofu	-0.050543457
-4.750035	processed	-0.050543457
-4.750035	soybeans	-0.050543457
-2.8535347	them	-0.16019803
-3.4583611	several	-0.050543427
-4.149158	choices	-0.050543427
-3.394188	let	-0.20575249
-3.394188	set	-0.12780863
-4.750035	priorities	-0.050543457
-4.750035	fun	-0.050543457
-4.397137	roast	-0.050543457
-4.750035	marshmallows	-0.050543457
-3.394188	gas	-0.07480262
-4.750035	burner	-0.050543457
-3.8984072	suddenly	-0.050543457
-4.750035	reflexes	-0.050543457
-4.397137	sharp	-0.050543457
-3.5336893	'd	-0.06941244
-3.5336893	cut	-0.077932544
-4.750035	pompousness	-0.050543457
-4.750035	ribbons	-0.050543457
-3.288769	say	-0.15630125
-4.149158	country	-0.050543427
-4.750035	homogeneous	-0.050543457
-4.149158	community	-0.12780866
-4.750035	encyclopedias	-0.050543457
-3.5336893	present	-0.050543457
-4.750035	anecdotal	-0.050543457
-3.740458	evidence	-0.050543457
-4.750035	crucified	-0.050543457
-4.397137	nailed	-0.050543457
-4.397137	yard	-0.050543457
-4.397137	loss	-0.050543457
-3.6248827	talk	-0.087460026
-4.750035	turns	-0.050543457
-4.149158	calls	-0.050543427
-4.750035	mess	-0.050543457
-3.740458	sometimes	-0.050543457
-4.397137	confusion	-0.050543457
-4.397137	check	-0.050543427
-4.750035	overnighters	-0.050543457
-3.740458	public	-0.09523541
-4.750035	armed	-0.050543457
-4.750035	sophistication	-0.050543457
-4.750035	numerous	-0.050543457
-4.750035	competing	-0.050543457
-4.750035	media	-0.050543457
-4.750035	shawn	-0.050543457
-4.397137	catch	-0.050543457
-4.750035	goose	-0.050543457
-3.4583611	help	-0.101185404
-3.8984072	ate	-0.050543457
-4.750035	oyster	-0.050543457
-3.740458	nora	-0.050543457
-4.750035	plate	-0.050543457
-3.394188	eat	-0.050543427
-4.750035	raisins	-0.050543457
-4.397137	outdoors	-0.050543457
-4.750035	porch	-0.050543457
-4.397137	steps	-0.050543457
-4.149158	rode	-0.050543427
-3.8984072	low	-0.050543457
-4.750035	mare	-0.050543457
-4.750035	neck	-0.050543457
-3.8984072	government	-0.050543457
-4.397137	sought	-0.050543457
-4.750035	authorization	-0.050543457
-4.397137	citizenship	-0.050543457
-3.8984072	thus	-0.0819902
-4.750035	advances	-0.050543457
-4.397137	entirely	-0.050543457
-4.149158	functional	-0.050543427
-3.5336893	lines	-0.14135335
-4.750035	squeezed	-0.050543457
-4.750035	bottom	-0.050543457
-3.8984072	asked	-0.050543427
-4.750035	reportorial	-0.050543457
-4.397137	gleam	-0.050543457
-3.8984072	eye	-0.050543457
-4.397137	concept	-0.17229345
-4.397137	responsibility	-0.050543457
-3.8984072	process	-0.09523541
-4.750035	articulation	-0.050543457
-4.750035	establishment	-0.050543457
-4.397137	everybody	-0.050543457
-4.149158	junior	-0.050543457
-3.0187695	when	-0.1312032
-4.397137	shed	-0.050543457
-4.149158	leave	-0.050543427
-4.397137	rust	-0.050543457
-4.750035	marks	-0.050543457
-4.397137	ca	-0.17229345
-4.149158	seem	-0.050543457
-4.750035	locate	-0.050543457
-4.750035	landmarks	-0.050543457
-4.149158	snow	-0.050543427
-4.750035	prepare	-0.050543457
-4.149158	mustard	-0.050543457
-4.750035	blend	-0.050543457
-3.740458	thin	-0.09523541
-4.397137	paste	-0.050543457
-4.750035	biblical	-0.050543457
-4.750035	scholars	-0.050543457
-4.750035	argue	-0.050543457
-3.740458	history	-0.050543457
-4.750035	adopted	-0.050543457
-4.397137	opposite	-0.050543457
-4.397137	alternative	-0.17229345
-4.397137	answers	-0.050543457
-4.750035	straightforward	-0.050543457
-3.740458	carefully	-0.09523541
-3.244323	come	-0.07480262
-4.750035	pathological	-0.050543457
-4.397137	examples	-0.17229345
-4.750035	publicity	-0.050543457
-4.750035	notoriety	-0.050543457
-3.244323	hand	-0.19124435
-4.149158	lighted	-0.050543427
-4.149158	interior	-0.050543427
-3.394188	men	-0.0723148
-3.6248827	women	-0.050543457
-4.750035	struggling	-0.050543457
-4.750035	wraps	-0.050543457
-3.8984072	serve	-0.050543457
-4.750035	rhubarb	-0.050543457
-4.750035	rachel	-0.050543457
-4.750035	hides	-0.050543457
-4.750035	mayonnaise	-0.050543457
-3.6248827	four	-0.087460026
-3.740458	extra	-0.050543457
-4.149158	eggs	-0.050543427
-4.750035	breakfast	-0.050543457
-4.750035	rabbit	-0.050543457
-4.750035	punch	-0.050543457
-4.750035	redoubled	-0.050543457
-4.397137	neglect	-0.050543457
-3.6248827	means	-0.050543457
-4.750035	spiritual	-0.050543457
-4.397137	paralysis	-0.050543457
-3.6248827	death	-0.15852182
-4.750035	hood	-0.050543457
-4.750035	jeep	-0.050543457
-4.750035	steaming	-0.050543457
-3.8984072	sun	-0.22459614
-4.750035	stimulating	-0.050543457
-4.397137	discussions	-0.050543457
-3.4583611	students	-0.077932544
-3.1671166	'	-0.050543457
-4.149158	attention	-0.10716594
-4.149158	example	-0.10716594
-4.750035	universitywide	-0.050543457
-4.750035	issues	-0.050543457
-4.750035	senate	-0.050543457
-3.1331165	just	-0.060774814
-4.397137	drop	-0.050543457
-4.750035	notices	-0.050543457
-4.750035	suggestion	-0.050543457
-4.397137	box	-0.12780866
-4.750035	recent	-0.050543457
-4.750035	survey	-0.050543457
-4.750035	seismic	-0.050543457
-3.8984072	activity	-0.22459614
-3.740458	somewhere	-0.09523541
-3.394188	else	-0.11206309
-3.1015859	people	-0.1686502
-3.244323	who	-0.06186589
-4.397137	travel	-0.050543457
-4.750035	distances	-0.050543457
-4.750035	assure	-0.050543457
-3.8984072	continued	-0.10716594
-4.149158	existence	-0.12780866
-4.397137	meeting	-0.050543457
-4.750035	adjourned	-0.050543457
-4.750035	fifth	-0.050543457
-4.397137	jar	-0.050543457
-4.397137	contains	-0.050543457
-4.750035	juicy	-0.050543457
-4.750035	peaches	-0.050543457
-4.750035	apply	-0.050543457
-4.750035	auditory	-0.050543457
-4.397137	modeling	-0.050543457
-4.750035	computer	-0.050543457
-4.750035	recognition	-0.050543457
-4.750035	porcupines	-0.050543457
-4.750035	resemble	-0.050543457
-4.149158	sea	-0.12780866
-4.750035	urchins	-0.050543457
-4.750035	fasciculations	-0.050543457
-4.750035	sensory	-0.050543457
-4.750035	defects	-0.050543457
-3.288769	high	-0.050543457
-4.397137	security	-0.050543457
-4.750035	prison	-0.050543457
-4.397137	surrounded	-0.050543457
-4.149158	barbed	-0.30255884
-4.149158	wire	-0.050543457
-4.750035	cigarettes	-0.050543457
-3.4583611	clay	-0.0723148
-4.750035	ashtray	-0.050543457
-4.750035	overflowed	-0.050543457
-4.149158	onto	-0.12780866
-4.397137	oak	-0.050543457
-3.8984072	table	-0.10716594
-4.149158	feed	-0.050543427
-4.149158	pressure	-0.050543457
-4.397137	major	-0.050543427
-4.149158	importance	-0.050543427
-4.397137	cab	-0.050543457
-4.397137	repainting	-0.050543457
-4.149158	remove	-0.050543427
-4.397137	splinter	-0.050543457
-4.397137	pair	-0.050543457
-4.750035	tweezers	-0.050543457
-4.750035	bandaged	-0.050543457
-3.1671166	both	-0.050543457
-4.750035	wounds	-0.050543457
-4.750035	skill	-0.050543457
-4.397137	doctor	-0.12780866
-4.149158	stay	-0.050543427
-3.3382876	where	-0.064022124
-3.8984072	kid	-0.09523541
-3.740458	called	-0.050543457
-3.8984072	reason	-0.050543457
-4.750035	misinterpret	-0.050543457
-4.750035	ignore	-0.050543457
-4.750035	intent	-0.050543457
-4.397137	letter	-0.17229345
-3.740458	last	-0.14135335
-4.397137	shortage	-0.12780866
-3.740458	caused	-0.087460026
-4.149158	steep	-0.050543427
-3.8984072	price	-0.10716594
-4.397137	increases	-0.050543457
-4.397137	fixed	-0.050543457
-3.6248827	number	-0.6035888
-4.750035	trials	-0.050543457
-4.750035	toddler	-0.050543457
-4.750035	clamshell	-0.050543457
-3.740458	near	-0.4006874
-4.397137	camp	-0.050543427
-4.149158	site	-0.050543457
-4.750035	lawyer	-0.050543457
-4.750035	appointed	-0.050543457
-4.397137	execute	-0.050543457
-3.740458	eight	-0.050543457
-4.750035	icicles	-0.050543457
-3.8984072	roof	-0.10716594
-4.750035	haunted	-0.050543457
-3.4583611	house	-0.050543457
-4.397137	hit	-0.050543457
-4.397137	due	-0.17229345
-4.750035	outstanding	-0.050543457
-4.750035	audiovisual	-0.050543457
-4.149158	effects	-0.12780866
-4.750035	cooperation	-0.050543457
-4.750035	understanding	-0.050543457
-4.750035	alleviate	-0.050543457
-4.397137	dispute	-0.050543457
-4.750035	drawn	-0.050543457
-3.8984072	enemy	-0.050543427
-4.149158	flew	-0.050543427
-3.6248827	maybe	-0.115646325
-3.1331165	work	-0.077932544
-3.2040064	way	-0.122785814
-3.740458	bright	-0.050543457
-4.750035	sunshine	-0.050543457
-4.750035	shimmers	-0.050543457
-3.394188	years	-0.19379844
-4.750035	preservation	-0.050543457
-4.397137	essentially	-0.050543457
-3.740458	related	-0.32150614
-4.750035	survival	-0.050543457
-4.149158	gon	-0.30255884
-4.397137	na	-0.050543457
-3.244323	give	-0.20115864
-4.397137	drink	-0.050543457
-4.750035	fella	-0.050543457
-4.750035	masquerade	-0.050543457
-4.149158	tax	-0.050543427
-4.750035	imagination	-0.050543457
-4.750035	john	-0.050543427
-3.740458	brother	-0.09523541
-4.750035	repainted	-0.050543457
-4.750035	garage	-0.050543457
-3.740458	door	-0.09523541
-4.397137	please	-0.050543427
-4.750035	confirm	-0.050543457
-4.149158	policy	-0.050543427
-4.750035	regarding	-0.050543457
-4.750035	waste	-0.050543457
-4.750035	removal	-0.050543457
-4.750035	tomboy	-0.050543457
-3.740458	play	-0.050543457
-4.149158	exercise	-0.050543427
-3.5336893	six	-0.050543457
-3.6248827	times	-0.15852182
-4.149158	class	-0.050543427
-4.149158	mind	-0.050543427
-4.750035	useless	-0.050543457
-4.750035	kindly	-0.050543457
-3.6248827	questions	-0.087460026
-3.8984072	forget	-0.050543457
-4.750035	whiskey	-0.050543457
-4.750035	seller	-0.050543457
-3.740458	try	-0.18375848
-4.750035	recall	-0.050543457
-3.740458	events	-0.050543457
-4.750035	chronological	-0.050543457
-4.397137	foreign	-0.050543457
-4.750035	subtitles	-0.050543457
-3.740458	insurance	-0.050543457
-3.740458	company	-0.09523541
-4.149158	aid	-0.050543427
-4.750035	reducing	-0.050543457
-4.397137	administrative	-0.050543457
-4.750035	costs	-0.050543457
-3.5336893	children	-0.050543457
-4.750035	consume	-0.050543457
-3.8984072	fruit	-0.050543457
-4.750035	candies	-0.050543457
-4.397137	sitting	-0.050543457
-4.397137	participate	-0.17229345
-4.750035	athletic	-0.050543457
-4.149158	activities	-0.12780866
-4.750035	shipbuilding	-0.050543457
-4.750035	fascinating	-0.050543457
-4.750035	auburn	-0.050543457
-4.397137	reminded	-0.050543457
-4.397137	autumn	-0.050543457
-3.740458	leaves	-0.050543457
-3.740458	street	-0.050543457
-4.397137	straight	-0.050543457
-4.149158	ahead	-0.12780866
-4.750035	thyroid	-0.050543457
-4.750035	function	-0.050543457
-4.397137	yielded	-0.050543457
-3.394188	results	-0.11946921
-4.750035	gorgeous	-0.050543457
-4.750035	butterfly	-0.050543457
-3.8984072	lot	-0.10716594
-4.750035	nectar	-0.050543457
-4.750035	seen	-0.050543457
-4.149158	power	-0.050543427
-4.397137	faith	-0.050543457
-4.397137	grown	-0.050543457
-4.750035	junglelike	-0.050543457
-4.750035	slopes	-0.050543457
-4.750035	temperate	-0.050543457
-4.750035	zones	-0.050543457
-4.397137	snarled	-0.050543457
-3.5336893	close	-0.0819902
-4.750035	overhead	-0.050543457
-3.1015859	take	-0.09627326
-3.8984072	charge	-0.050543457
-4.750035	choosing	-0.050543457
-4.397137	bride	-0.050543457
-4.750035	maids	-0.050543457
-4.750035	gowns	-0.050543457
-3.740458	traffic	-0.09523541
-4.750035	failed	-0.050543457
-4.397137	measure	-0.050543457
-4.750035	engineers	-0.050543457
-4.750035	rosy	-0.050543457
-4.750035	estimates	-0.050543457
-3.8984072	shadow	-0.050543457
-4.397137	vanished	-0.17229345
-4.750035	utopians	-0.050543457
-3.8984072	labor	-0.10716594
-4.750035	precaution	-0.050543457
-4.750035	outlaws	-0.050543457
-3.8984072	bought	-0.050543457
-4.750035	gunpowder	-0.050543457
-4.750035	stronghold	-0.050543457
-4.397137	act	-0.050543457
-4.750035	refusal	-0.050543457
-4.149158	useful	-0.10716594
-4.750035	ambidextrous	-0.050543457
-4.750035	pickpockets	-0.050543457
-4.750035	accomplish	-0.050543457
-4.149158	soil	-0.050543427
-4.397137	redeposition	-0.050543457
-4.750035	evaluated	-0.050543457
-4.750035	washing	-0.050543457
-4.397137	clean	-0.050543457
-4.750035	swatches	-0.050543457
-4.149158	dirty	-0.050543427
-3.8984072	ones	-0.050543457
-4.750035	butterscotch	-0.050543457
-4.750035	fudge	-0.050543457
-3.6248827	goes	-0.050543427
-3.1015859	well	-0.08782406
-4.750035	vanilla	-0.050543457
-4.750035	pledge	-0.050543457
-4.397137	nevada	-0.050543457
-4.750035	aquatic	-0.050543457
-4.750035	competition	-0.050543457
-4.397137	office	-0.050543457
-4.750035	groundhog	-0.050543457
-3.740458	clearly	-0.050543457
-4.149158	stayed	-0.050543427
-4.397137	mom	-0.050543457
-4.750035	biologists	-0.050543457
-3.244323	use	-0.050543457
-4.750035	radioactive	-0.050543457
-4.750035	isotopes	-0.050543457
-3.5336893	study	-0.27339977
-4.397137	microorganisms	-0.050543457
-4.750035	necessitates	-0.050543457
-4.750035	nonsystematic	-0.050543457
-4.397137	character	-0.050543457
-4.397137	astronomy	-0.050543457
-4.750035	eyelids	-0.050543457
-4.750035	fluttered	-0.050543457
-4.750035	congratulate	-0.050543457
-4.397137	entire	-0.050543457
-4.750035	membership	-0.050543457
-4.149158	legislation	-0.12780866
-4.750035	irate	-0.050543457
-4.750035	actor	-0.050543457
-4.750035	stomped	-0.050543457
-3.044659	away	-0.2504978
-4.750035	idiotically	-0.050543457
-4.397137	gently	-0.050543457
-3.244323	place	-0.13504937
-4.397137	jim	-0.050543457
-4.397137	foam	-0.050543457
-4.149158	sing	-0.050543427
-3.740458	club	-0.050543457
-4.149158	theme	-0.12780866
-4.750035	barracuda	-0.050543457
-4.750035	recoiled	-0.050543457
-4.750035	serpent	-0.050543457
-4.397137	poisonous	-0.050543457
-4.750035	fangs	-0.050543457
-4.149158	surprise	-0.12780866
-3.4583611	plan	-0.077932544
-4.750035	perfectly	-0.050543457
-3.288769	while	-0.09707321
-4.750035	element	-0.050543457
-4.750035	announcing	-0.050543457
-3.740458	progress	-0.050543457
-4.750035	delineating	-0.050543457
-3.6248827	problems	-0.15852182
-4.397137	insulate	-0.050543457
-4.750035	weatherstrip	-0.050543457
-4.750035	doubleglaze	-0.050543457
-4.750035	maximum	-0.050543457
-4.750035	lullaby	-0.050543457
-4.750035	goodnight	-0.050543457
-3.4583611	voice	-0.070289865
-4.397137	shook	-0.050543457
-4.750035	bare	-0.050543457
-4.750035	floorboards	-0.050543457
-4.149158	lay	-0.12780866
-3.244323	face	-0.1292579
-2.8204672	down	-0.14637366
-3.4583611	problem	-0.087460026
-4.750035	concerns	-0.050543457
-4.750035	longitudes	-0.050543457
-4.750035	latitudes	-0.050543457
-4.750035	angular	-0.050543457
-4.750035	velocities	-0.050543457
-4.397137	movement	-0.050543457
-3.244323	took	-0.09230333
-4.397137	forms	-0.050543457
-4.397137	tracks	-0.050543457
-3.394188	either	-0.050543457
-4.750035	hoofs	-0.050543457
-4.149158	boots	-0.050543427
-4.750035	al	-0.050543457
-3.8984072	received	-0.050543457
-4.750035	joint	-0.050543457
-4.750035	appointment	-0.050543457
-4.750035	biology	-0.050543457
-4.149158	engineering	-0.12780866
-4.750035	departments	-0.050543457
-3.3382876	being	-0.050543457
-4.397137	based	-0.17229345
-3.740458	few	-0.050543457
-4.750035	dubious	-0.050543457
-4.750035	validity	-0.050543457
-4.397137	greeted	-0.050543457
-4.149158	husband	-0.050543427
-4.750035	colleagues	-0.050543457
-4.750035	smiling	-0.050543457
-4.750035	politeness	-0.050543457
-4.750035	offering	-0.050543457
-4.750035	tim	-0.050543457
-3.740458	takes	-0.050543457
-4.750035	sheila	-0.050543457
-3.288769	see	-0.077932544
-3.8984072	twice	-0.10716594
-4.750035	week	-0.050543457
-4.750035	pintsized	-0.050543457
-4.750035	graying	-0.050543457
-4.750035	spade	-0.050543457
-4.750035	beard	-0.050543457
-4.750035	unusually	-0.050543457
-3.6248827	head	-0.16522668
-4.397137	permanent	-0.050543457
-4.750035	records	-0.050543457
-4.149158	critical	-0.12780866
-3.8984072	equipment	-0.050543457
-4.397137	proper	-0.050543427
-4.397137	maintenance	-0.17229345
-4.397137	emperor	-0.050543457
-3.5336893	mean	-0.077932544
-4.750035	temper	-0.050543457
-4.397137	factors	-0.050543457
-4.750035	praises	-0.050543457
-4.750035	individuals	-0.050543457
-4.750035	generously	-0.050543457
-4.750035	preschooler	-0.050543457
-4.750035	verbalize	-0.050543457
-4.397137	feelings	-0.050543457
-4.750035	emergency	-0.050543457
-4.397137	conditions	-0.050543457
-4.750035	stinging	-0.050543457
-4.149158	vapor	-0.12780866
-4.750035	chloride	-0.050543457
-4.750035	vaporization	-0.050543457
-4.750035	evaluate	-0.050543457
-4.750035	algebraic	-0.050543457
-4.397137	expression	-0.050543457
-4.750035	tornados	-0.050543457
-3.8984072	destroy	-0.050543457
-4.750035	acres	-0.050543457
-4.149158	farm	-0.050543457
-4.750035	land	-0.050543457
-4.750035	describe	-0.050543457
-4.750035	idiotic	-0.050543457
-4.750035	predicament	-0.050543457
-4.750035	twenty	-0.050543457
-4.149158	thirty	-0.050543427
-4.397137	fifty	-0.050543457
-4.397137	touched	-0.050543457
-3.0187695	off	-0.106653936
-4.397137	total	-0.050543427
-4.750035	stampede	-0.050543457
-4.149158	clear	-0.050543427
-4.750035	pronunciation	-0.050543457
-4.397137	appreciated	-0.17229345
-3.8984072	sources	-0.22459614
-4.750035	financing	-0.050543457
-4.750035	unavailable	-0.050543457
-2.9283407	must	-0.3448577
-4.750035	provided	-0.050543457
-4.397137	especially	-0.050543427
-4.149158	difficult	-0.050543427
-4.149158	since	-0.050543427
-4.750035	gyro	-0.050543457
-4.750035	drifting	-0.050543457
-4.750035	typically	-0.050543457
-4.750035	random	-0.050543457
-4.149158	space	-0.050543457
-4.750035	probes	-0.050543457
-3.3382876	little	-0.050543457
-4.397137	information	-0.050543457
-4.397137	academic	-0.050543457
-4.397137	guarantees	-0.050543457
-4.750035	diploma	-0.050543457
-4.149158	huge	-0.050543457
-4.750035	outage	-0.050543457
-4.750035	cyclical	-0.050543457
-4.149158	programs	-0.050543427
-4.750035	compile	-0.050543457
-4.750035	steve	-0.050543457
-4.750035	collects	-0.050543457
-3.8984072	rare	-0.050543457
-4.397137	novel	-0.050543457
-4.397137	coins	-0.050543457
-4.750035	avocados	-0.050543457
-3.244323	very	-0.050543457
-4.750035	nutrients	-0.050543457
-4.149158	stop	-0.050543427
-4.397137	miss	-0.050543457
-3.740458	pick	-0.09523541
-4.149158	pieces	-0.12780866
-4.750035	thrusting	-0.050543457
-3.5336893	itself	-0.14135335
-3.8984072	somebody	-0.050543457
-4.397137	stand	-0.050543457
-4.397137	audience	-0.050543457
-4.149158	guilty	-0.050543427
-4.149158	faces	-0.12780866
-3.4583611	idea	-0.11946921
-3.4583611	behind	-0.12890813
-4.149158	design	-0.050543427
-4.750035	modular	-0.050543457
-4.750035	units	-0.050543457
-4.750035	panelization	-0.050543457
-3.2040064	before	-0.077932544
-3.5336893	longer	-0.106096074
-4.750035	quieted	-0.050543457
-4.149158	second	-0.050543457
-4.750035	assistant	-0.050543457
-4.397137	mopped	-0.050543457
-3.0721903	two	-0.050543457
-4.750035	sponges	-0.050543457
-4.750035	drunkards	-0.050543457
-3.6248827	easy	-0.087460026
-4.750035	create	-0.050543457
-4.397137	illuminating	-0.050543457
-4.750035	originals	-0.050543457
-4.750035	necessarily	-0.050543457
-4.750035	adaptations	-0.050543457
-3.4583611	bad	-0.19934529
-4.397137	count	-0.050543457
-4.750035	teaspoons	-0.050543457
-4.750035	soysauce	-0.050543457
-4.750035	vietnamese	-0.050543457
-4.750035	cuisine	-0.050543457
-4.750035	exquisite	-0.050543457
-4.750035	legislature	-0.050543457
-3.6248827	met	-0.050543427
-4.750035	judge	-0.050543457
-4.397137	education	-0.17229345
-4.750035	seamstresses	-0.050543457
-4.750035	attach	-0.050543457
-4.750035	zippers	-0.050543457
-4.750035	thimble	-0.050543457
-4.397137	needle	-0.050543457
-4.397137	thread	-0.050543457
-4.750035	warningly	-0.050543457
-4.750035	veterinarian	-0.050543457
-4.750035	ellipsoids	-0.050543457
-4.750035	conclusions	-0.050543457
-4.397137	reasonable	-0.050543457
-4.750035	approximation	-0.050543457
-4.397137	follow	-0.050543457
-4.397137	advice	-0.050543457
-4.750035	wealthy	-0.050543457
-4.750035	tycoons	-0.050543457
-4.750035	splurged	-0.050543457
-4.750035	yacht	-0.050543457
-4.750035	schooner	-0.050543457
-4.149158	earth	-0.050543457
-4.750035	manage	-0.050543457
-4.750035	algae	-0.050543457
-4.750035	mixed	-0.050543457
-4.750035	liquor	-0.050543457
-4.750035	mayan	-0.050543457
-4.750035	neoclassic	-0.050543457
-4.750035	scholar	-0.050543457
-4.397137	surveying	-0.050543457
-4.750035	ruins	-0.050543457
-4.397137	thank	-0.17229345
-4.750035	dusting	-0.050543457
-3.740458	herself	-0.050543457
-4.750035	illegal	-0.050543457
-4.750035	postdate	-0.050543457
-4.397137	remember	-0.050543457
-4.397137	identical	-0.050543457
-4.750035	twins	-0.050543457
-4.397137	enter	-0.050543457
-4.149158	freely	-0.12780866
-4.397137	advertising	-0.050543457
-4.397137	verse	-0.050543457
-4.750035	plymouth	-0.050543457
-4.397137	variety	-0.050543457
-4.149158	store	-0.050543427
-4.149158	changes	-0.12780866
-4.750035	surplus	-0.050543457
-4.750035	sold	-0.050543457
-4.750035	discount	-0.050543457
-4.750035	rearrange	-0.050543457
-4.397137	matters	-0.050543457
-4.750035	performers	-0.050543457
-4.750035	bump	-0.050543457
-4.750035	desire	-0.050543457
-4.149158	ability	-0.30255884
-4.397137	read	-0.050543457
-3.394188	important	-0.070289865
-4.750035	aspects	-0.050543457
-4.397137	cultural	-0.050543457
-3.1331165	life	-0.17779423
-4.750035	penguins	-0.050543457
-3.6248827	live	-0.050543427
-4.397137	icy	-0.050543457
-4.750035	antarctic	-0.050543457
-4.750035	offensive	-0.050543457
-4.750035	innocence	-0.050543457
-4.149158	rose	-0.050543427
-4.750035	corsage	-0.050543457
-4.397137	smelled	-0.050543457
-4.397137	sweet	-0.050543427
-4.397137	figures	-0.050543457
-3.740458	higher	-0.050543457
-3.4583611	later	-0.11946921
-2.7751553	may	-0.30047277
-4.750035	unfortunates	-0.050543457
-4.397137	darkness	-0.050543457
-3.4583611	began	-0.33535373
-4.750035	dissolve	-0.050543457
-4.750035	mercenary	-0.050543457
-4.750035	term	-0.050543457
-4.750035	incomplete	-0.050543457
-4.750035	imperfect	-0.050543457
-3.244323	things	-0.084506154
-3.740458	move	-0.050543457
-4.149158	towards	-0.050543427
-4.149158	lack	-0.12780866
-3.5336893	within	-0.07480262
-4.750035	autonomy	-0.050543457
-4.750035	member	-0.050543457
-4.397137	library	-0.050543457
-4.750035	preserved	-0.050543457
-4.750035	grunt	-0.050543457
-4.397137	curiously	-0.050543457
-4.750035	inarticulate	-0.050543457
-4.397137	animal	-0.050543427
-4.149158	pain	-0.050543427
-4.397137	unless	-0.050543457
-4.750035	hails	-0.050543457
-4.397137	pass	-0.17229345
-4.149158	walked	-0.050543457
-4.149158	driven	-0.12780866
-4.397137	observe	-0.050543457
-3.740458	moral	-0.09523541
-3.6248827	law	-0.050543457
-3.8984072	physical	-0.050543457
-4.397137	appear	-0.050543457
-4.397137	inevitable	-0.17229345
-3.8984072	further	-0.050543457
-4.750035	stopping	-0.050543457
-4.750035	anarchy	-0.050543457
-4.750035	garrisoned	-0.050543457
-4.750035	triumphant	-0.050543457
-4.750035	warrior	-0.050543457
-4.750035	exhibited	-0.050543457
-4.397137	naive	-0.050543457
-4.750035	heroism	-0.050543457
-4.750035	service	-0.050543457
-4.750035	tips	-0.050543457
-3.5336893	why	-0.058788396
-3.5336893	tell	-0.25883403
-3.5336893	themselves	-0.14135335
-4.750035	bothers	-0.050543457
-4.750035	contribute	-0.050543457
-4.149158	popularity	-0.30255884
-4.149158	agency	-0.050543427
-4.750035	overthrow	-0.050543457
-4.750035	alien	-0.050543457
-3.4583611	forces	-0.16192402
-4.750035	suburban	-0.050543457
-4.750035	housewives	-0.050543457
-4.750035	suffer	-0.050543457
-4.750035	gab	-0.050543457
-4.750035	habit	-0.050543457
-4.750035	clasp	-0.050543457
-4.750035	screw	-0.050543457
-3.3382876	left	-0.050543457
-3.740458	others	-0.050543427
-4.750035	ephemeral	-0.050543457
-4.397137	picked	-0.17229345
-3.8984072	powder	-0.050543457
-4.750035	canister	-0.050543457
-3.4583611	ran	-0.050543457
-4.750035	portrayal	-0.050543457
-4.750035	edgy	-0.050543457
-4.750035	headintheclouds	-0.050543457
-4.750035	artist	-0.050543457
-4.397137	virtually	-0.050543457
-4.750035	flawless	-0.050543457
-4.397137	tapestry	-0.050543457
-3.740458	hung	-0.18375848
-4.397137	hallway	-0.050543457
-4.397137	chosen	-0.050543457
-4.750035	purposely	-0.050543457
-3.8984072	nice	-0.050543457
-4.750035	trifle	-0.050543457
-4.750035	gaudy	-0.050543457
-3.394188	become	-0.07480262
-3.740458	completely	-0.050543457
-4.750035	equal	-0.050543457
-4.750035	landbased	-0.050543457
-4.397137	radar	-0.050543457
-4.149158	roll	-0.050543427
-4.149158	wall	-0.050543457
-4.750035	cloverleaf	-0.050543457
-4.397137	gets	-0.050543457
-4.750035	backed	-0.050543457
-3.8984072	heat	-0.10716594
-4.750035	compounded	-0.050543457
-4.397137	tenant	-0.050543457
-4.397137	grievances	-0.17229345
-4.149158	tragic	-0.050543427
-4.397137	stage	-0.050543457
-4.397137	platform	-0.050543427
-4.750035	extending	-0.050543457
-4.750035	precariously	-0.050543457
-3.4583611	between	-0.050543457
-4.750035	heaven	-0.050543457
-4.397137	hell	-0.050543457
-4.149158	garbage	-0.050543427
-4.750035	nearer	-0.050543457
-4.397137	window	-0.17229345
-4.750035	privations	-0.050543457
-3.6248827	beyond	-0.050543427
-4.397137	endurance	-0.17229345
-4.750035	forever	-0.050543457
-4.750035	itemize	-0.050543457
-4.750035	accounts	-0.050543457
-3.740458	trouble	-0.09523541
-4.149158	full	-0.10716594
-4.750035	moon	-0.050543457
-4.750035	brightly	-0.050543457
-4.397137	replace	-0.050543457
-4.750035	statue	-0.050543457
-3.8984072	world	-0.050543457
-4.750035	dictators	-0.050543457
-4.397137	game	-0.050543457
-4.750035	cards	-0.050543457
-4.750035	conservatism	-0.050543457
-4.750035	traditionalism	-0.050543457
-4.750035	implied	-0.050543457
-4.750035	oysters	-0.050543457
-4.750035	pearls	-0.050543457
-3.740458	brown	-0.050543457
-4.750035	knit	-0.050543457
-4.397137	sport	-0.050543457
-4.149158	shirt	-0.050543427
-4.397137	tie	-0.050543457
-4.750035	vacuum	-0.050543457
-4.149158	cleaners	-0.050543427
-4.149158	rooms	-0.050543427
-4.750035	sucking	-0.050543457
-4.397137	dust	-0.050543457
-3.394188	once	-0.11206309
-4.397137	someplace	-0.050543457
-4.750035	morphological	-0.050543457
-4.397137	optical	-0.050543457
-4.750035	property	-0.050543457
-4.149158	values	-0.050543427
-3.6248827	given	-0.12780866
-4.750035	yeah	-0.050543457
-4.149158	range	-0.050543427
-4.397137	vital	-0.050543457
-4.149158	detail	-0.30255884
-4.750035	chocolate	-0.050543457
-4.750035	roses	-0.050543457
-4.397137	fail	-0.050543457
-4.750035	romantic	-0.050543457
-4.149158	gift	-0.30255884
-4.750035	previous	-0.050543457
-4.750035	speaker	-0.050543457
-3.740458	presented	-0.050543427
-4.397137	ambiguous	-0.050543457
-4.750035	optimal	-0.050543457
-4.750035	humidity	-0.050543457
-4.750035	requirements	-0.050543457
-3.8984072	various	-0.050543457
-4.750035	agents	-0.050543457
-4.397137	airborne	-0.17229345
-3.6248827	dog	-0.12780866
-4.397137	loved	-0.050543457
-4.750035	chew	-0.050543457
-3.3382876	old	-0.064022124
-4.397137	doll	-0.050543457
-4.750035	esoteric	-0.050543457
-4.149158	doctrine	-0.12780866
-3.5336893	lost	-0.077932544
-4.750035	shuffle	-0.050543457
-4.397137	acquire	-0.050543457
-4.397137	special	-0.050543457
-4.750035	powers	-0.050543457
-4.750035	opens	-0.050543457
-4.397137	chamber	-0.050543457
-4.397137	teach	-0.050543427
-4.750035	abolish	-0.050543457
-4.750035	cheating	-0.050543457
-4.750035	ignores	-0.050543457
-4.750035	guidebook	-0.050543457
-4.397137	facts	-0.17229345
-4.397137	scientific	-0.050543457
-3.8984072	comes	-0.10716594
-3.740458	development	-0.050543457
-4.397137	techniques	-0.17229345
-4.750035	signs	-0.050543457
-4.750035	gross	-0.050543457
-4.397137	hemorrhage	-0.050543457
-4.750035	lungs	-0.050543457
-4.750035	heart	-0.050543457
-4.149158	brain	-0.050543427
-4.397137	stomach	-0.050543457
-4.750035	pickpocket	-0.050543457
-4.750035	redhanded	-0.050543457
-4.750035	gigantic	-0.050543457
-4.397137	wasp	-0.050543457
-3.740458	next	-0.077932544
-4.750035	irving	-0.050543457
-4.149158	hat	-0.050543427
-4.750035	biscuit	-0.050543457
-3.3382876	thought	-0.10267285
-4.750035	soul	-0.050543457
-4.750035	steph	-0.050543457
-4.750035	handle	-0.050543457
-4.149158	psychological	-0.050543427
-4.750035	trauma	-0.050543457
-4.750035	chases	-0.050543457
-4.397137	cats	-0.050543457
-4.750035	mercilessly	-0.050543457
-4.750035	injected	-0.050543457
-4.750035	vitality	-0.050543457
-4.750035	score	-0.050543457
-4.750035	revealed	-0.050543457
-4.750035	nearathand	-0.050543457
-4.750035	spectacular	-0.050543457
-4.397137	victim	-0.050543457
-4.397137	parking	-0.050543457
-4.750035	attendants	-0.050543457
-4.750035	replaced	-0.050543457
-4.397137	automatic	-0.050543457
-4.397137	gates	-0.17229345
-4.750035	aside	-0.050543457
-3.8984072	dry	-0.050543457
-4.149158	thoroughly	-0.12780866
-4.397137	teacher	-0.050543457
-4.397137	assignment	-0.050543457
-4.750035	desegregate	-0.050543457
-4.149158	build	-0.050543427
-4.397137	beverage	-0.050543457
-4.397137	plant	-0.050543457
-4.397137	taxicab	-0.17229345
-4.397137	broke	-0.050543457
-4.750035	jam	-0.050543457
-4.397137	shapes	-0.050543457
-4.750035	bathtubs	-0.050543457
-4.750035	etiquette	-0.050543457
-4.750035	mandates	-0.050543457
-4.750035	compliance	-0.050543457
-4.397137	existing	-0.050543457
-4.750035	regulations	-0.050543457
-4.750035	cory	-0.050543457
-4.149158	attacked	-0.050543427
-3.8984072	project	-0.050543457
-4.750035	determination	-0.050543457
-4.750035	desires	-0.050543457
-3.8984072	simple	-0.050543457
-4.397137	informative	-0.050543457
-4.750035	paragraph	-0.050543457
-4.397137	subject	-0.050543457
-3.288769	seemed	-0.14388464
-4.750035	irritated	-0.050543457
-4.750035	paperweight	-0.050543457
-4.750035	personalized	-0.050543457
-4.149158	leather	-0.050543427
-4.750035	doubt	-0.050543457
-4.397137	benefit	-0.050543457
-4.750035	vocational	-0.050543457
-4.750035	amoebas	-0.050543457
-4.397137	shape	-0.050543457
-4.397137	constantly	-0.050543457
-4.750035	coyote	-0.050543457
-4.750035	bobcat	-0.050543457
-4.750035	hyena	-0.050543457
-4.397137	wild	-0.050543457
-4.397137	animals	-0.050543457
-3.8984072	nine	-0.050543457
-4.750035	pairs	-0.050543457
-4.750035	socks	-0.050543457
-4.750035	calico	-0.050543457
-4.149158	cat	-0.050543427
-4.750035	jeff	-0.050543457
-4.750035	toy	-0.050543457
-4.750035	gocart	-0.050543457
-4.149158	dead	-0.050543427
-4.750035	spirits	-0.050543457
-4.397137	occupied	-0.050543457
-4.750035	prominent	-0.050543457
-3.6248827	hope	-0.050543427
-4.397137	fear	-0.050543457
-4.750035	caraway	-0.050543457
-3.740458	seeds	-0.050543457
-4.750035	hispanic	-0.050543457
-4.149158	costumes	-0.050543427
-4.397137	colorful	-0.050543457
-4.750035	withdraw	-0.050543457
-3.3382876	money	-0.070289865
-3.4583611	real	-0.07480262
-4.750035	diane	-0.050543457
-4.750035	splurge	-0.050543457
-4.397137	turquoise	-0.050543457
-4.750035	necklace	-0.050543457
-4.397137	figure	-0.050543427
-3.740458	woman	-0.050543457
-4.397137	buying	-0.050543457
-4.750035	thoroughbred	-0.050543457
-3.8984072	horse	-0.050543457
-3.740458	requires	-0.050543457
-4.750035	intuition	-0.050543457
-4.750035	expertise	-0.050543457
-4.750035	thomas	-0.050543457
-4.397137	thinks	-0.050543427
-3.8984072	larger	-0.050543457
-4.750035	clamp	-0.050543457
-4.750035	solves	-0.050543457
-4.397137	ant	-0.050543457
-4.750035	bites	-0.050543457
-4.750035	eased	-0.050543457
-4.750035	applying	-0.050543457
-4.397137	liquid	-0.050543457
-4.750035	bluing	-0.050543457
-4.397137	fluid	-0.050543457
-4.750035	fearful	-0.050543457
-4.397137	sigh	-0.050543457
-4.750035	knife	-0.050543457
-3.5336893	went	-0.07480262
-4.750035	reconsider	-0.050543457
-4.750035	assured	-0.050543457
-4.750035	rewrite	-0.050543457
-4.397137	decrease	-0.050543457
-4.750035	temptations	-0.050543457
-4.750035	classical	-0.050543457
-4.397137	performance	-0.050543457
-4.397137	gained	-0.050543427
-4.750035	acclaim	-0.050543457
-4.750035	avowed	-0.050543457
-4.750035	freethinkers	-0.050543457
-3.044659	which	-0.061292686
-4.750035	article	-0.050543457
-4.397137	opaque	-0.050543457
-3.740458	needed	-0.050543457
-4.750035	clarification	-0.050543457
-4.750035	handbag	-0.050543457
-4.750035	gwen	-0.050543457
-4.750035	planted	-0.050543457
-4.750035	green	-0.050543457
-4.750035	beans	-0.050543457
-4.397137	vegetable	-0.050543457
-3.6248827	soon	-0.050543457
-4.750035	halfman	-0.050543457
-4.750035	wants	-0.050543457
-4.750035	deed	-0.050543457
-3.6248827	done	-0.14135335
-4.397137	failure	-0.17229345
-3.394188	open	-0.0723148
-3.740458	cost	-0.050543427
-4.397137	cow	-0.050543457
-4.750035	wandered	-0.050543457
-4.750035	farmland	-0.050543457
-3.740458	became	-0.050543457
-4.750035	associated	-0.050543457
-4.750035	expressway	-0.050543457
-4.397137	basic	-0.050543457
-4.750035	danny	-0.050543457
-3.6248827	nobody	-0.050543457
-3.5336893	knew	-0.10716594
-4.750035	embracing	-0.050543457
-4.750035	exclaiming	-0.050543457
-3.4583611	small	-0.050543457
-4.149158	corner	-0.050543427
-4.397137	angry	-0.050543457
-3.394188	boy	-0.050543427
-3.6248827	answered	-0.15852182
-4.149158	word	-0.050543457
-4.750035	sermon	-0.050543457
-4.149158	emphasized	-0.12780866
-4.750035	affirmative	-0.050543457
-4.750035	westchester	-0.050543457
-4.397137	county	-0.050543457
-4.750035	york	-0.050543457
-4.397137	markets	-0.050543457
-4.750035	competitive	-0.050543457
-4.750035	consumers	-0.050543457
-4.750035	selective	-0.050543457
-4.750035	pottery	-0.050543457
-4.750035	studio	-0.050543457
-4.750035	celebrate	-0.050543457
-4.149158	success	-0.050543427
-4.750035	lifeboats	-0.050543457
-4.750035	stuck	-0.050543457
-4.397137	fast	-0.050543457
-4.397137	cottage	-0.050543457
-3.8984072	cheese	-0.10716594
-4.750035	chives	-0.050543457
-4.750035	delicious	-0.050543457
-4.750035	rains	-0.050543457
-4.397137	flow	-0.050543457
-4.397137	rapidly	-0.050543457
-4.750035	infiltration	-0.050543457
-4.750035	sewers	-0.050543457
-4.149158	brings	-0.050543427
-4.750035	peryear	-0.050543457
-4.750035	mighty	-0.050543457
-3.740458	played	-0.050543457
-4.397137	crack	-0.050543457
-4.750035	whip	-0.050543457
-3.8984072	minutes	-0.050543457
-4.750035	mishap	-0.050543457
-4.750035	pa	-0.050543457
-4.397137	care	-0.050543457
-4.750035	bathing	-0.050543457
-4.750035	itching	-0.050543457
-4.149158	parts	-0.050543427
-4.397137	kerosene	-0.050543457
-3.740458	relief	-0.18375848
-4.149158	killed	-0.050543427
-4.750035	pests	-0.050543457
-4.750035	takin	-0.050543457
-4.750035	abides	-0.050543457
-4.750035	lousiness	-0.050543457
-4.750035	prerequisite	-0.050543457
-4.750035	epidemic	-0.050543457
-4.750035	typhus	-0.050543457
-4.750035	flying	-0.050543457
-4.750035	standby	-0.050543457
-4.750035	practical	-0.050543457
-4.149158	save	-0.050543427
-4.750035	jaw	-0.050543457
-4.750035	operates	-0.050543457
-4.750035	using	-0.050543457
-4.750035	antagonistic	-0.050543457
-4.149158	muscles	-0.050543427
-3.6248827	sense	-0.12780866
-4.750035	shag	-0.050543457
-4.750035	end	-0.050543457
-4.750035	woolly	-0.050543457
-4.750035	encouraged	-0.050543457
-3.5336893	own	-0.050543457
-4.397137	halloween	-0.050543457
-4.750035	shampoo	-0.050543457
-3.6248827	seems	-0.087460026
-4.397137	heroic	-0.050543457
-3.8984072	treatment	-0.10716594
-4.397137	spherical	-0.050543457
-4.750035	gifts	-0.050543457
-4.750035	wrap	-0.050543457
-4.750035	george	-0.050543457
-4.750035	watches	-0.050543457
-4.750035	daytime	-0.050543457
-4.750035	thaw	-0.050543457
-4.397137	slow	-0.050543457
-4.750035	inward	-0.050543457
-4.397137	bulged	-0.050543457
-4.149158	floor	-0.22459614
-4.397137	trembled	-0.050543457
-4.750035	windowpanes	-0.050543457
-4.750035	rattled	-0.050543457
-3.6248827	five	-0.050543427
-4.397137	season	-0.050543457
-4.397137	summer	-0.050543457
-4.750035	belongs	-0.050543457
-4.750035	carefree	-0.050543457
-4.750035	aspect	-0.050543457
-4.750035	meanwhile	-0.050543457
-3.3382876	three	-0.0723148
-3.394188	great	-0.06598223
-4.750035	terrible	-0.050543457
-4.750035	coagulating	-0.050543457
-4.750035	crystallizing	-0.050543457
-4.397137	probably	-0.050543457
-3.1015859	around	-0.1686502
-4.397137	midnight	-0.050543457
-4.397137	hour	-0.050543427
-4.750035	utilizing	-0.050543457
-4.750035	vending	-0.050543457
-4.149158	machine	-0.050543427
-4.750035	proceeds	-0.050543457
-3.5336893	pay	-0.050543457
-3.6248827	program	-0.087460026
-4.750035	roulette	-0.050543457
-4.750035	vain	-0.050543457
-3.740458	cases	-0.050543427
-4.750035	soils	-0.050543457
-4.149158	taken	-0.050543457
-4.750035	liquids	-0.050543457
-4.750035	capillary	-0.050543457
-4.750035	secured	-0.050543457
-4.750035	oversized	-0.050543457
-4.750035	padlock	-0.050543457
-3.1015859	again	-0.3199759
-4.397137	shock	-0.050543457
-4.750035	therapies	-0.050543457
-4.750035	likewise	-0.050543457
-4.750035	hypothalamic	-0.050543457
-4.397137	balance	-0.050543457
-4.750035	caution	-0.050543457
-4.397137	continuous	-0.050543457
-4.750035	administration	-0.050543457
-4.750035	recommended	-0.050543457
-4.750035	lactating	-0.050543457
-3.6248827	air	-0.0819902
-4.750035	bubbles	-0.050543457
-4.149158	highly	-0.050543427
-4.750035	thermal	-0.050543457
-4.750035	barriers	-0.050543457
-4.750035	absolution	-0.050543457
-3.8984072	lie	-0.10716594
-4.397137	childhood	-0.050543457
-3.6248827	told	-0.0819902
-3.1671166	himself	-0.16073877
-4.750035	outfielders	-0.050543457
-4.750035	chaw	-0.050543457
-4.750035	tobacco	-0.050543457
-4.149158	wound	-0.050543427
-4.750035	antiseptic	-0.050543457
-4.750035	healing	-0.050543457
-3.8984072	luck	-0.050543457
-3.8984072	honey	-0.10716594
-4.750035	bruises	-0.050543457
-4.750035	relieved	-0.050543457
-4.397137	application	-0.17229345
-4.750035	raw	-0.050543457
-4.397137	beefsteak	-0.17229345
-4.397137	dad	-0.050543457
-4.750035	bidding	-0.050543457
-4.750035	giant	-0.050543457
-4.750035	shimmered	-0.050543457
-4.750035	glistening	-0.050543457
-4.750035	interpretations	-0.050543457
-4.397137	music	-0.050543457
-4.750035	intimate	-0.050543457
-4.750035	creation	-0.050543457
-4.750035	rockandroll	-0.050543457
-4.750035	rhythm	-0.050543457
-4.397137	transparent	-0.050543457
-4.750035	waxy	-0.050543457
-4.750035	skin	-0.050543457
-4.750035	uremia	-0.050543457
-4.397137	dressy	-0.050543457
-4.397137	straw	-0.050543457
-4.750035	pumps	-0.050543457
-3.6248827	light	-0.087460026
-4.750035	crisp	-0.050543457
-4.750035	texture	-0.050543457
-4.149158	hear	-0.050543427
-4.750035	sleigh	-0.050543457
-4.750035	bells	-0.050543457
-4.750035	ringing	-0.050543457
-4.750035	mango	-0.050543457
-4.750035	papaya	-0.050543457
-3.6248827	bowl	-0.19765796
-4.397137	alimony	-0.050543457
-4.750035	harms	-0.050543457
-4.397137	divorced	-0.050543457
-4.397137	wealth	-0.17229345
-4.750035	norwegian	-0.050543457
-4.750035	sweaters	-0.050543457
-4.750035	lamb	-0.050543457
-4.750035	wool	-0.050543457
-4.750035	scalp	-0.050543457
-4.750035	blistered	-0.050543457
-4.397137	speak	-0.050543457
-4.750035	front	-0.050543457
-3.8984072	simply	-0.10716594
-4.149158	anybody	-0.050543427
-4.397137	carrying	-0.050543457
-3.4583611	anything	-0.050543427
-4.397137	hide	-0.050543457
-3.8984072	rifle	-0.050543457
-4.750035	definitely	-0.050543457
-4.750035	ligament	-0.050543457
-4.750035	knee	-0.050543457
-4.750035	archeological	-0.050543457
-3.8984072	museum	-0.17229345
-4.397137	brush	-0.050543457
-4.750035	fires	-0.050543457
-4.750035	underbrush	-0.050543457
-4.750035	narrow	-0.050543457
-4.750035	fringe	-0.050543457
-4.397137	sadness	-0.050543457
-3.8984072	pleasure	-0.17229345
-3.740458	shall	-0.087460026
-4.750035	flip	-0.050543457
-4.750035	coin	-0.050543457
-4.149158	extent	-0.050543427
-4.397137	predispositions	-0.050543457
-4.750035	shaped	-0.050543457
-4.397137	exposure	-0.17229345
-4.750035	environments	-0.050543457
-4.750035	typhoid	-0.050543457
-4.750035	malaria	-0.050543457
-4.750035	concessionaire	-0.050543457
-4.149158	runs	-0.050543427
-4.397137	cafeteria	-0.050543457
-4.149158	position	-0.050543457
-4.397137	covers	-0.17229345
-4.397137	daily	-0.050543457
-4.750035	tasks	-0.050543457
-4.750035	director	-0.050543457
-3.8984072	actually	-0.050543457
-4.750035	remembers	-0.050543457
-4.750035	greenness	-0.050543457
-4.750035	simmered	-0.050543457
-4.397137	examined	-0.17229345
-4.750035	thrombosis	-0.050543457
-4.750035	clot	-0.050543457
-3.8984072	half	-0.050543457
-4.750035	slyly	-0.050543457
-4.750035	enjoyed	-0.050543457
-4.750035	seeing	-0.050543457
-4.750035	stoop	-0.050543457
-4.149158	lift	-0.050543427
-4.750035	hurt	-0.050543457
-3.740458	though	-0.14135335
-4.750035	feeling	-0.050543457
-4.750035	inwardly	-0.050543457
-3.8984072	laughed	-0.10716594
-3.8984072	best	-0.050543427
-4.750035	players	-0.050543457
-4.750035	bleu	-0.050543457
-4.750035	victor	-0.050543457
-4.750035	prefers	-0.050543457
-4.750035	swiss	-0.050543457
-4.750035	showers	-0.050543457
-4.149158	chance	-0.050543427
-4.750035	refuse	-0.050543457
-4.750035	surgeon	-0.050543457
-4.149158	carried	-0.050543427
-4.750035	cage	-0.050543457
-4.750035	pigeons	-0.050543457
-4.750035	trespassing	-0.050543457
-4.750035	forbidden	-0.050543457
-4.750035	penalty	-0.050543457
-4.397137	fails	-0.050543457
-4.750035	gain	-0.050543457
-3.740458	sexual	-0.050543457
-4.750035	satisfaction	-0.050543457
-4.750035	rushing	-0.050543457
-4.149158	walking	-0.050543427
-4.750035	unhurried	-0.050543457
-4.750035	clotted	-0.050543457
-4.397137	balls	-0.050543457
-4.149158	color	-0.12780866
-4.750035	mucus	-0.050543457
-4.397137	rolled	-0.050543457
-4.750035	fiery	-0.050543457
-4.397137	lids	-0.050543457
-4.750035	warmish	-0.050543457
-4.397137	foul	-0.050543457
-4.750035	irish	-0.050543457
-4.397137	youngsters	-0.050543457
-4.750035	kippers	-0.050543457
-4.750035	willowy	-0.050543457
-4.750035	muskrat	-0.050543457
-4.149158	coat	-0.050543427
-4.397137	local	-0.050543427
-4.750035	drugstore	-0.050543457
-4.750035	charged	-0.050543457
-4.750035	illegally	-0.050543457
-4.750035	dispensing	-0.050543457
-4.750035	tranquilizers	-0.050543457
-4.750035	eastern	-0.050543457
-4.750035	coast	-0.050543457
-4.750035	pure	-0.050543457
-4.750035	excitement	-0.050543457
-4.750035	everincreasing	-0.050543457
-4.397137	column	-0.050543457
-4.750035	sportsmen	-0.050543457
-4.149158	moving	-0.050543427
-4.750035	era	-0.050543457
-3.740458	paper	-0.050543457
-4.397137	apples	-0.050543457
-4.750035	ices	-0.050543457
-4.750035	allowance	-0.050543457
-4.750035	reporters	-0.050543457
-3.8984072	remained	-0.050543457
-4.750035	paranoid	-0.050543457
-4.750035	future	-0.050543457
-4.397137	force	-0.050543457
-4.397137	naturally	-0.050543457
-4.750035	curly	-0.050543457
-3.740458	family	-0.050543457
-4.397137	exclusive	-0.050543457
-4.750035	documents	-0.050543457
-4.750035	locked	-0.050543457
-4.750035	tugboats	-0.050543457
-4.397137	capable	-0.17229345
-4.750035	hauling	-0.050543457
-4.750035	loads	-0.050543457
-4.397137	tradition	-0.050543457
-4.397137	poetry	-0.050543457
-3.8984072	marriage	-0.22459614
-4.397137	bed	-0.050543427
-4.750035	unity	-0.050543457
-4.750035	harmony	-0.050543457
-4.149158	sides	-0.050543457
-4.750035	doors	-0.050543457
-4.750035	slammed	-0.050543457
-4.750035	dimensions	-0.050543457
-4.397137	waves	-0.050543457
-4.397137	usual	-0.050543457
-4.397137	standards	-0.050543457
-4.397137	measurement	-0.050543457
-3.8984072	fine	-0.050543457
-3.8984072	tomorrow	-0.050543457
-3.8984072	added	-0.050543457
-4.750035	creole	-0.050543457
-4.397137	cooking	-0.050543457
-4.750035	curry	-0.050543457
-4.750035	eyedrops	-0.050543457
-4.750035	tears	-0.050543457
-4.149158	outer	-0.050543427
-3.740458	line	-0.050543457
-4.750035	analyticity	-0.050543457
-4.397137	curves	-0.050543457
-4.397137	intervals	-0.050543457
-4.149158	exist	-0.050543427
-4.750035	primitive	-0.050543457
-4.750035	tribes	-0.050543457
-4.750035	upbeat	-0.050543457
-4.149158	attitude	-0.050543427
-3.394188	milk	-0.050543457
-4.750035	shredded	-0.050543457
-4.750035	fought	-0.050543457
-4.149158	panic	-0.050543457
-4.750035	vertigo	-0.050543457
-4.750035	insufficient	-0.050543457
-4.750035	conviction	-0.050543457
-4.750035	released	-0.050543457
-4.149158	blue	-0.050543427
-4.397137	rug	-0.050543457
-4.750035	suspiciously	-0.050543457
-4.750035	geeing	-0.050543457
-4.750035	hawing	-0.050543457
-3.394188	necessary	-0.14804094
-4.750035	ironically	-0.050543457
-4.750035	instance	-0.050543457
-3.740458	personal	-0.050543457
-4.750035	virtues	-0.050543457
-4.397137	luxury	-0.17229345
-4.750035	needless	-0.050543457
-3.740458	art	-0.050543457
-4.397137	suffered	-0.050543457
-4.750035	drastically	-0.050543457
-4.149158	during	-0.050543427
-4.397137	turbulent	-0.050543457
-4.149158	possessed	-0.050543427
-4.750035	clotheshorse	-0.050543457
-4.750035	chestnuts	-0.050543457
-4.750035	starchy	-0.050543457
-4.750035	photochemical	-0.050543457
-4.750035	exchange	-0.050543457
-4.750035	phase	-0.050543457
-4.750035	former	-0.050543457
-4.750035	scout	-0.050543457
-4.750035	alibi	-0.050543457
-4.750035	shaken	-0.050543457
-4.397137	atomic	-0.050543427
-4.750035	nucleus	-0.050543457
-3.6248827	've	-0.1534558
-4.750035	bathe	-0.050543457
-3.244323	feet	-0.12843655
-4.750035	merrily	-0.050543457
-4.750035	smell	-0.050543457
-4.750035	powerfully	-0.050543457
-4.750035	civilized	-0.050543457
-4.149158	nose	-0.050543427
-4.397137	deny	-0.050543457
-4.397137	accept	-0.050543457
-4.397137	gradually	-0.050543457
-3.8984072	coming	-0.050543457
-4.397137	anyhow	-0.050543457
-4.750035	salted	-0.050543457
-4.397137	rise	-0.050543457
-3.8984072	strong	-0.050543457
-4.397137	stress	-0.050543457
-4.750035	serves	-0.050543457
-4.750035	focus	-0.050543457
-4.750035	secondary	-0.050543457
-4.397137	relationship	-0.050543457
-4.750035	sweetsour	-0.050543457
-4.397137	sauce	-0.050543457
-4.397137	cook	-0.050543457
-4.149158	onion	-0.050543427
-3.5336893	oil	-0.077932544
-3.5336893	until	-0.0819902
-3.740458	soft	-0.050543457
-4.750035	smiths	-0.050543457
-4.397137	worship	-0.050543457
-4.750035	peeling	-0.050543457
-4.750035	spray	-0.050543457
-4.397137	artists	-0.050543457
-4.750035	exchanged	-0.050543457
-4.750035	autographs	-0.050543457
-4.750035	shimmering	-0.050543457
-4.397137	haze	-0.050543457
-4.750035	aggressive	-0.050543457
-4.750035	policeman	-0.050543457
-4.397137	flag	-0.050543457
-4.750035	thoughtless	-0.050543457
-4.397137	motorists	-0.050543457
-4.397137	employee	-0.050543457
-4.397137	layoffs	-0.050543457
-4.149158	coincided	-0.30255884
-4.750035	reorganization	-0.050543457
-4.149158	twelve	-0.050543427
-4.750035	o'clock	-0.050543457
-4.397137	level	-0.17229345
-4.750035	avocado	-0.050543457
-4.397137	hold	-0.050543427
-4.750035	bagpipes	-0.050543457
-4.750035	bongos	-0.050543457
-4.397137	musical	-0.050543457
-4.750035	instruments	-0.050543457
-4.750035	chiefly	-0.050543457
-3.6248827	because	-0.087460026
-4.750035	bluish	-0.050543457
-3.5336893	white	-0.050543457
-4.750035	autofluorescence	-0.050543457
-4.397137	growing	-0.050543457
-4.750035	wellkept	-0.050543457
-4.750035	gardens	-0.050543457
-4.750035	consuming	-0.050543457
-3.8984072	acts	-0.22459614
-4.397137	violence	-0.050543457
-4.750035	hires	-0.050543457
-4.397137	musicians	-0.050543457
-4.750035	explicitly	-0.050543457
-4.750035	delete	-0.050543457
-4.397137	files	-0.050543457
-4.149158	blew	-0.050543427
-4.750035	expertly	-0.050543457
-4.750035	fingers	-0.050543427
-4.750035	enrich	-0.050543457
-3.4583611	already	-0.07480262
-4.750035	insert	-0.050543457
-3.8984072	meat	-0.050543457
-4.750035	diagonally	-0.050543457
-4.397137	rest	-0.17229345
-4.149158	bone	-0.12780866
-4.750035	purchased	-0.050543457
-4.750035	signed	-0.050543457
-4.750035	lithographs	-0.050543457
-4.750035	false	-0.050543457
-4.750035	surfeit	-0.050543457
-4.750035	sector	-0.050543457
-4.397137	adequate	-0.050543457
-4.750035	compensation	-0.050543457
-4.750035	indispensable	-0.050543457
-4.750035	piped	-0.050543457
-4.750035	tremulously	-0.050543457
-4.750035	screwdriver	-0.050543457
-4.750035	vodka	-0.050543457
-4.397137	staff	-0.050543457
-4.750035	deserves	-0.050543457
-4.397137	credit	-0.050543457
-3.8984072	working	-0.050543457
-4.750035	obstacles	-0.050543457
-4.750035	bluejay	-0.050543457
-4.397137	building	-0.050543457
-4.750035	complexity	-0.050543457
-4.397137	complete	-0.050543427
-4.149158	marketing	-0.12780866
-4.397137	planning	-0.050543457
-4.397137	news	-0.050543457
-4.149158	hired	-0.050543427
-4.750035	journalist	-0.050543457
-4.397137	uses	-0.050543457
-4.397137	names	-0.050543457
-4.750035	interchangeably	-0.050543457
-4.750035	coconut	-0.050543457
-3.5336893	makes	-0.050543457
-4.750035	bequests	-0.050543457
-4.397137	list	-0.050543457
-4.750035	largely	-0.050543457
-4.397137	unknown	-0.050543457
-4.750035	undeniably	-0.050543457
-4.750035	reflects	-0.050543457
-3.8984072	view	-0.050543457
-4.750035	ably	-0.050543457
-4.750035	shell	-0.050543457
-4.750035	shrapnel	-0.050543457
-4.397137	cured	-0.050543457
-4.750035	therapy	-0.050543457
-4.750035	antigen	-0.050543457
-4.750035	detectable	-0.050543457
-3.740458	certain	-0.09523541
-4.397137	areas	-0.050543457
-4.397137	doctors	-0.050543457
-4.750035	prescribe	-0.050543457
-4.397137	drugs	-0.050543457
-4.750035	scoop	-0.050543457
-4.750035	exotic	-0.050543457
-4.750035	purple	-0.050543457
-4.750035	sherbet	-0.050543457
-4.750035	dyeing	-0.050543457
-4.750035	waxing	-0.050543457
-4.750035	gassing	-0.050543457
-4.750035	kayak	-0.050543457
-4.750035	bayou	-0.050543457
-4.750035	opposing	-0.050543457
-4.397137	aircraft	-0.050543457
-4.750035	planets	-0.050543457
-4.397137	bigger	-0.050543457
-4.397137	holding	-0.050543457
-4.397137	atmosphere	-0.050543457
-3.8984072	language	-0.050543457
-4.397137	lesson	-0.050543457
-4.397137	master	-0.050543457
-4.397137	sudden	-0.050543457
-4.750035	departure	-0.050543457
-4.750035	shocked	-0.050543457
-4.750035	cast	-0.050543457
-4.750035	avalanche	-0.050543457
-4.750035	triggered	-0.050543457
-4.750035	minor	-0.050543457
-4.750035	earthquake	-0.050543457
-4.750035	welcome	-0.050543457
-4.750035	alfalfa	-0.050543457
-4.750035	healthy	-0.050543457
-4.397137	fulfilling	-0.050543457
-4.750035	destiny	-0.050543457
-4.149158	approach	-0.050543427
-4.750035	interview	-0.050543457
-4.750035	statuesque	-0.050543457
-4.750035	composure	-0.050543457
-4.750035	billowed	-0.050543457
-4.750035	pungent	-0.050543457
-4.149158	cloud	-0.12780866
-4.750035	smoke	-0.050543457
-4.397137	boil	-0.050543457
-4.397137	easily	-0.050543457
-4.397137	stupid	-0.050543427
-4.397137	crazy	-0.050543457
-4.750035	immortal	-0.050543457
-4.750035	jeopardize	-0.050543457
-4.149158	wrong	-0.050543427
-4.397137	confirmation	-0.050543457
-4.750035	massive	-0.050543457
-4.750035	assaults	-0.050543457
-4.750035	independent	-0.050543457
-4.750035	perverse	-0.050543457
-3.394188	ever	-0.050543457
-4.397137	gin	-0.050543457
-4.750035	saws	-0.050543457
-4.750035	supplies	-0.050543457
-4.397137	machinery	-0.050543457
-3.394188	still	-0.050543427
-4.750035	unbelievable	-0.050543457
-3.8984072	murder	-0.10716594
-4.750035	longed	-0.050543457
-4.750035	echo	-0.050543457
-4.750035	saga	-0.050543457
-4.397137	extended	-0.050543457
-4.750035	comment	-0.050543457
-4.397137	covered	-0.050543457
-4.750035	container	-0.050543457
-4.397137	kitchen	-0.050543457
-4.750035	pail	-0.050543457
-4.750035	toilet	-0.050543457
-4.397137	nevertheless	-0.050543427
-4.750035	upward	-0.050543457
-4.750035	andrei	-0.050543457
-4.750035	skilled	-0.050543457
-4.397137	sized	-0.050543457
-4.750035	disregarding	-0.050543457
-4.750035	protests	-0.050543457
-4.397137	reading	-0.050543457
-4.149158	image	-0.050543457
-4.750035	appeared	-0.050543457
-4.750035	prisoner	-0.050543457
-4.750035	irons	-0.050543457
-4.750035	filtered	-0.050543457
-4.149158	benefits	-0.12780866
-4.750035	allergies	-0.050543457
-4.750035	asthma	-0.050543457
-4.750035	sinus	-0.050543457
-4.149158	hay	-0.050543427
-4.397137	fever	-0.17229345
-4.750035	manhood	-0.050543457
-4.750035	sinuous	-0.050543457
-4.750035	melody	-0.050543457
-3.8984072	sort	-0.22459614
-4.750035	transcendence	-0.050543457
-3.4583611	experience	-0.12890813
-4.397137	break	-0.050543457
-4.750035	fjords	-0.050543457
-4.750035	flurries	-0.050543457
-4.750035	shove	-0.050543457
-4.750035	atypical	-0.050543457
-4.397137	farmers	-0.050543457
-4.149158	grow	-0.050543427
-4.397137	oats	-0.050543457
-4.750035	original	-0.050543457
-4.750035	forgery	-0.050543457
-4.149158	situation	-0.087460026
-3.8984072	involved	-0.10716594
-4.397137	political	-0.050543457
-4.750035	perils	-0.050543457
-4.750035	ralph	-0.050543457
-4.397137	prepared	-0.050543457
-3.8984072	red	-0.050543457
-4.750035	snapper	-0.050543457
-4.750035	lemon	-0.050543457
-4.750035	hamradio	-0.050543457
-4.750035	sale	-0.050543457
-4.750035	weekend	-0.050543457
-4.750035	influences	-0.050543457
-3.8984072	increased	-0.050543457
-4.750035	voltages	-0.050543457
-3.740458	turn	-0.050543457
-4.750035	wider	-0.050543457
-4.750035	discretionary	-0.050543457
-4.750035	customers	-0.050543457
-4.750035	historical	-0.050543457
-4.397137	created	-0.050543457
-4.149158	lips	-0.050543457
-4.750035	pursed	-0.050543457
-4.750035	mournfully	-0.050543457
-4.750035	stared	-0.050543457
-4.750035	crazily	-0.050543457
-4.750035	sagging	-0.050543457
-3.740458	side	-0.09523541
-4.397137	solidarity	-0.17229345
-4.750035	confidential	-0.050543457
-4.750035	mount	-0.050543457
-4.750035	midair	-0.050543457
-4.750035	patient	-0.050543427
-4.750035	recuperating	-0.050543457
-4.750035	lengthy	-0.050543457
-4.149158	except	-0.12780866
-4.750035	son	-0.050543457
-4.397137	type	-0.17229345
-3.8984072	coverage	-0.050543457
-4.750035	thirtyfive	-0.050543457
-3.8984072	military	-0.050543457
-4.750035	civilian	-0.050543457
-4.397137	laboratory	-0.050543457
-4.149158	training	-0.12780866
-4.750035	enlisted	-0.050543457
-4.397137	loyal	-0.050543457
-3.8984072	experts	-0.10716594
-4.750035	zealous	-0.050543457
-4.750035	volunteers	-0.050543457
-4.750035	disputes	-0.050543457
-4.750035	arise	-0.050543457
-4.750035	provisions	-0.050543457
-4.750035	sophisticated	-0.050543457
-4.750035	impact	-0.050543457
-3.8984072	fact	-0.050543457
-4.750035	capitalize	-0.050543457
-4.750035	fears	-0.050543457
-3.5336893	something	-0.07480262
-4.397137	pulled	-0.050543457
-4.397137	leg	-0.050543457
-4.750035	numbering	-0.050543457
-4.750035	laws	-0.050543457
-4.750035	differ	-0.050543457
-3.740458	ways	-0.18375848
-4.750035	universe	-0.050543457
-3.8984072	safe	-0.050543457
-4.750035	vacation	-0.050543457
-3.5336893	yourself	-0.2254686
-4.750035	diet	-0.050543457
-4.750035	thrower	-0.050543457
-4.149158	flame	-0.050543427
-3.740458	'em	-0.050543427
-4.397137	basis	-0.050543457
-4.750035	deeper	-0.050543457
-4.750035	mere	-0.050543457
-4.397137	authority	-0.050543457
-4.397137	thief	-0.050543457
-4.397137	adage	-0.050543457
-4.750035	frightened	-0.050543457
-4.750035	subdued	-0.050543457
-4.750035	annual	-0.050543457
-4.397137	grants	-0.050543457
-4.750035	systems	-0.050543457
-4.750035	substantial	-0.050543457
-4.397137	amounts	-0.050543457
-4.750035	yogurt	-0.050543457
-4.397137	ideological	-0.050543457
-4.750035	argument	-0.050543457
-4.750035	participants	-0.050543457
-4.149158	tend	-0.30255884
-4.750035	thump	-0.050543457
-4.750035	rough	-0.050543457
-3.740458	cloth	-0.050543457
-4.750035	rasped	-0.050543457
-4.397137	fist	-0.050543457
-4.397137	lifelong	-0.17229345
-4.397137	friends	-0.050543457
-4.750035	companions	-0.050543457
-4.750035	cliff	-0.050543457
-4.149158	display	-0.050543427
-4.750035	misplaced	-0.050543457
-4.750035	screen	-0.050543457
-3.394188	yet	-0.06493576
-4.397137	explosion	-0.050543457
-4.750035	accommodate	-0.050543457
-4.397137	firing	-0.050543457
-4.397137	rates	-0.050543457
-4.397137	gallon	-0.050543457
-4.397137	bother	-0.050543457
-4.397137	piece	-0.050543457
-4.750035	engine	-0.050543457
-4.750035	cowling	-0.050543457
-4.397137	toss	-0.050543457
-3.6248827	die	-0.050543457
-4.750035	ace	-0.050543457
-4.397137	appears	-0.050543457
-4.397137	elements	-0.050543457
-4.397137	competitors	-0.17229345
-4.750035	coward	-0.050543457
-4.149158	area	-0.09523541
-4.750035	susceptible	-0.050543457
-4.397137	infection	-0.050543457
-4.750035	involving	-0.050543457
-4.750035	fieldwork	-0.050543457
-4.750035	hiding	-0.050543457
-4.397137	bullet	-0.050543457
-3.740458	start	-0.050543457
-4.750035	slate	-0.050543457
-4.750035	detract	-0.050543457
-4.397137	merit	-0.050543457
-4.750035	interesting	-0.050543457
-4.750035	shorten	-0.050543457
-4.397137	skirt	-0.050543457
-4.750035	joyce	-0.050543457
-4.149158	drove	-0.050543457
-4.397137	occasionally	-0.050543457
-4.750035	blues	-0.050543457
-4.750035	giraffes	-0.050543457
-3.8984072	kept	-0.050543457
-4.750035	zoos	-0.050543457
-4.750035	cartoon	-0.050543457
-4.149158	features	-0.050543427
-4.750035	tadpole	-0.050543457
-4.397137	exists	-0.050543457
-4.750035	objective	-0.050543457
-4.149158	reality	-0.050543457
-4.397137	experienced	-0.050543457
-3.8984072	known	-0.050543457
-4.750035	batterypowered	-0.050543457
-4.149158	radio	-0.050543427
-4.397137	essential	-0.050543457
-4.750035	handsome	-0.050543457
-4.750035	despite	-0.050543457
-4.750035	scar	-0.050543457
-4.397137	slanted	-0.050543457
-4.750035	cheek	-0.050543457
-4.750035	twentynine	-0.050543457
-4.750035	exhibits	-0.050543457
-4.750035	awards	-0.050543457
-3.740458	above	-0.050543457
-4.750035	friend	-0.050543457
-4.750035	seeker	-0.050543457
-4.750035	pathetic	-0.050543457
-4.397137	eagerness	-0.050543457
-4.149158	liked	-0.050543427
-4.750035	sheltered	-0.050543457
-4.750035	winds	-0.050543457
-4.397137	desirable	-0.050543457
-4.750035	recreation	-0.050543457
-4.397137	third	-0.050543457
-4.397137	volume	-0.050543457
-4.397137	remains	-0.050543457
-4.750035	published	-0.050543457
-4.149158	sit	-0.050543427
-4.750035	repeated	-0.050543457
-4.750035	motioning	-0.050543457
-4.750035	piled	-0.050543457
-4.397137	bags	-0.050543457
-4.750035	pig	-0.050543457
-4.750035	leavings	-0.050543457
-3.8984072	sure	-0.050543457
-3.8984072	touch	-0.050543457
-4.750035	revolving	-0.050543457
-4.750035	spit	-0.050543457
-4.750035	coals	-0.050543457
-4.750035	campus	-0.050543457
-4.397137	unfortunately	-0.050543457
-4.750035	owns	-0.050543457
-4.397137	films	-0.050543457
-4.149158	according	-0.30255884
-4.750035	interpretation	-0.050543457
-4.750035	perpendicular	-0.050543457
-4.750035	kneeling	-0.050543457
-4.750035	shoelaces	-0.050543457
-4.397137	pushups	-0.050543457
-3.8984072	strength	-0.050543457
-4.750035	adults	-0.050543457
-4.750035	convince	-0.050543457
-4.750035	thwarted	-0.050543457
-4.397137	energy	-0.050543457
-3.8984072	levels	-0.22459614
-4.397137	sank	-0.050543457
-4.750035	sighing	-0.050543457
-4.397137	asleep	-0.050543457
-4.750035	lying	-0.050543457
-3.5336893	felt	-0.050543457
-4.149158	wave	-0.12780866
-4.750035	revulsion	-0.050543457
-4.750035	send	-0.050543457
-4.750035	shovels	-0.050543457
-4.750035	nails	-0.050543457
-4.750035	corrugated	-0.050543457
-4.750035	iron	-0.050543457
-4.750035	roofs	-0.050543457
-4.750035	fights	-0.050543457
-4.397137	sprang	-0.17229345
-3.8984072	quickly	-0.050543457
-4.750035	squelched	-0.050543457
-4.750035	whisper	-0.050543457
-4.149158	effort	-0.050543427
-4.750035	guerrillas	-0.050543457
-4.750035	racing	-0.050543457
-3.6248827	toward	-0.087460026
-4.149158	none	-0.12780866
-4.750035	craft	-0.050543457
-4.750035	longterm	-0.050543457
-4.750035	whirling	-0.050543457
-4.750035	jump	-0.050543457
-4.750035	gear	-0.050543457
-4.750035	sphere	-0.050543457
-4.397137	royal	-0.050543457
-4.750035	courts	-0.050543457
-4.750035	dynastic	-0.050543457
-4.750035	quarrels	-0.050543457
-4.750035	vaulting	-0.050543457
-4.750035	ambitions	-0.050543457
-4.750035	happily	-0.050543457
-4.750035	bounds	-0.050543457
-4.149158	brief	-0.050543457
-4.149158	dramatic	-0.050543427
-4.750035	poignancy	-0.050543457
-4.750035	shoot	-0.050543457
-4.397137	rules	-0.050543457
-4.750035	unabashed	-0.050543457
-4.750035	collusion	-0.050543457
-4.397137	passed	-0.050543457
-4.397137	wanted	-0.17229345
-4.750035	happened	-0.050543457
-3.8984072	anyone	-0.050543457
-4.750035	tried	-0.050543457
-4.750035	blockade	-0.050543457
-4.149158	answer	-0.050543427
-3.8984072	offered	-0.050543457
-4.750035	rickety	-0.050543457
-4.750035	planes	-0.050543457
-4.750035	overloaded	-0.050543457
-4.397137	wondered	-0.050543427
-4.750035	crash	-0.050543457
-4.750035	scour	-0.050543457
-3.8984072	literature	-0.050543457
-3.740458	find	-0.050543457
-4.750035	stored	-0.050543457
-4.750035	wisdom	-0.050543457
-4.750035	minds	-0.050543457
-3.4583611	better	-0.050543457
-4.750035	vacant	-0.050543457
-4.750035	babbled	-0.050543457
-4.397137	topography	-0.050543457
-4.750035	defiantly	-0.050543457
-4.750035	elongation	-0.050543457
-4.750035	treated	-0.050543457
-4.750035	marksmanship	-0.050543457
-4.397137	nuclear	-0.050543457
-4.397137	rockets	-0.050543457
-4.397137	airfields	-0.050543457
-4.397137	ease	-0.050543457
-4.149158	able	-0.30255884
-4.750035	role	-0.050543457
-4.397137	struck	-0.050543457
-4.397137	fancy	-0.050543457
-4.750035	duty	-0.050543457
-4.149158	weeks	-0.12780866
-4.149158	ago	-0.22459614
-4.397137	chaos	-0.050543457
-4.750035	succeeding	-0.050543457
-3.5336893	brought	-0.050543457
-4.750035	civilization	-0.050543457
-4.750035	mad	-0.050543457
-4.750035	sober	-0.050543457
-4.750035	rabies	-0.050543457
-4.397137	prevented	-0.050543457
-4.750035	madstones	-0.050543457
-4.750035	pioneer	-0.050543457
-4.397137	snakes	-0.050543457
-4.397137	ugly	-0.050543457
-4.397137	beverages	-0.050543457
-3.740458	perhaps	-0.077932544
-4.750035	bored	-0.050543457
-4.750035	holes	-0.050543457
-4.750035	stone	-0.050543457
-3.6248827	kind	-0.4006874
-4.149158	electric	-0.050543427
-4.750035	gadget	-0.050543457
-4.750035	hundred	-0.050543427
-4.397137	gun	-0.050543457
-4.397137	crashed	-0.050543457
-4.397137	drops	-0.050543457
-4.750035	bourgeoisie	-0.050543457
-4.750035	psychiatrist	-0.050543457
-4.750035	disapproves	-0.050543457
-4.397137	although	-0.050543457
-4.149158	alone	-0.050543427
-4.750035	survive	-0.050543457
-3.8984072	whatever	-0.050543457
-4.397137	tale	-0.050543457
-4.750035	tails	-0.050543457
-4.397137	explains	-0.050543457
-4.750035	unidirectional	-0.050543457
-4.750035	puree	-0.050543457
-4.397137	preparing	-0.050543457
-4.750035	skewers	-0.050543457
-4.750035	eagerly	-0.050543457
-4.750035	chip	-0.050543457
-4.750035	payments	-0.050543457
-4.397137	latest	-0.050543457
-3.6248827	possible	-0.087460026
-4.397137	date	-0.050543457
-4.750035	singer	-0.050543457
-4.750035	finger	-0.050543457
-4.149158	foolish	-0.050543427
-4.750035	football	-0.050543457
-4.397137	team	-0.050543457
-4.750035	coach	-0.050543457
-4.149158	watch	-0.050543427
-4.750035	dime	-0.050543457
-4.149158	waiting	-0.050543427
-4.750035	chipper	-0.050543457
-4.750035	crisscrossed	-0.050543457
-4.750035	square	-0.050543457
-4.750035	iris	-0.050543457
-4.397137	zoo	-0.17229345
-4.750035	eleven	-0.050543457
-4.750035	spanish	-0.050543457
-4.750035	zebras	-0.050543457
-4.750035	moistened	-0.050543457
-4.750035	uneasily	-0.050543457
-4.397137	ambulance	-0.050543457
-4.750035	distress	-0.050543457
-4.750035	frustration	-0.050543457
-4.750035	obtaining	-0.050543457
-4.750035	degrees	-0.050543457
-4.750035	precincts	-0.050543457
-4.750035	votes	-0.050543457
-4.750035	counted	-0.050543457
-4.750035	density	-0.050543457
-4.750035	applies	-0.050543457
-4.750035	micrometeorites	-0.050543457
-4.750035	gregory	-0.050543457
-4.750035	tom	-0.050543457
-4.397137	chose	-0.050543457
-4.397137	cartoons	-0.050543457
-4.750035	afternoon	-0.050543457
-4.750035	cloudburst	-0.050543457
-4.397137	abruptly	-0.050543457
-4.750035	dollarandcents	-0.050543457
-4.750035	limit	-0.050543457
-4.750035	punishment	-0.050543457
-4.397137	offer	-0.050543457
-4.397137	defense	-0.050543457
-4.750035	infectious	-0.050543457
-4.750035	hepatitis	-0.050543457
-4.750035	shouted	-0.050543457
-4.397137	heartily	-0.17229345
-4.750035	distinguished	-0.050543457
-4.750035	divinities	-0.050543457
-4.397137	join	-0.050543457
-3.8984072	ball	-0.18375848
-4.750035	player	-0.050543457
-4.397137	generous	-0.050543457
-4.750035	overhangs	-0.050543457
-4.750035	logical	-0.050543457
-4.397137	effective	-0.050543457
-4.397137	solution	-0.050543457
-4.397137	bacteria	-0.050543457
-4.750035	formed	-0.050543457
-4.397137	typical	-0.050543457
-4.750035	activated	-0.050543457
-4.750035	sludge	-0.050543457
-4.750035	floc	-0.050543457
-4.397137	built	-0.050543457
-4.149158	books	-0.12780866
-4.750035	testrun	-0.050543457
-4.750035	timing	-0.050543457
-4.750035	seasoning	-0.050543457
-4.750035	battery	-0.050543457
-4.750035	median	-0.050543457
-4.750035	gradeequivalent	-0.050543457
-3.6248827	analysis	-0.087460026
-4.750035	simmer	-0.050543457
-4.397137	fifteen	-0.050543457
-4.149158	anyway	-0.12780866
-4.750035	evident	-0.050543457
-4.397137	population	-0.050543427
-4.750035	thereby	-0.050543457
-4.750035	replenish	-0.050543457
-4.750035	pamphlets	-0.050543457
-4.750035	relieving	-0.050543457
-4.750035	maturity	-0.050543457
-4.750035	squashy	-0.050543457
-4.750035	flesh	-0.050543457
-4.397137	confidence	-0.17229345
-4.750035	banks	-0.050543457
-4.397137	economy	-0.050543457
-4.750035	mealynosed	-0.050543457
-4.149158	items	-0.12780866
-3.5336893	less	-0.050543457
-3.740458	shot	-0.050543457
-4.149158	body	-0.050543427
-4.750035	suburbs	-0.050543457
-4.750035	stock	-0.050543457
-4.750035	vaudeville	-0.050543457
-4.397137	gag	-0.050543457
-3.6248827	mother	-0.0819902
-4.750035	sick	-0.050543457
-4.750035	beep	-0.050543457
-3.8984072	turned	-0.050543457
-4.750035	buzz	-0.050543457
-4.750035	compact	-0.050543457
-4.397137	mass	-0.050543457
-4.397137	herdin	-0.17229345
-4.750035	symbolize	-0.050543457
-4.750035	uniqueness	-0.050543457
-4.750035	circle	-0.050543457
-4.750035	universality	-0.050543457
-4.750035	choreographer	-0.050543457
-4.750035	arbitrate	-0.050543457
-4.750035	advisement	-0.050543457
-4.750035	cling	-0.050543457
-4.397137	pools	-0.050543457
-4.149158	pool	-0.050543427
-4.397137	owner	-0.050543457
-3.8984072	knows	-0.050543457
-4.750035	usages	-0.050543457
-4.750035	distinct	-0.050543457
-4.397137	presents	-0.050543457
-4.750035	hazards	-0.050543457
-4.750035	reader	-0.050543457
-4.397137	waited	-0.050543457
-4.397137	inside	-0.050543457
-4.750035	elevator	-0.050543457
-4.750035	sex	-0.050543457
-4.750035	dollarsandcents	-0.050543457
-4.397137	pink	-0.050543457
-4.750035	smothered	-0.050543457
-4.397137	cough	-0.050543457
-4.750035	developed	-0.050543457
-4.750035	visitor	-0.050543457
-4.750035	inquired	-0.050543457
-4.750035	strategy	-0.050543457
-4.750035	sufficiently	-0.050543457
-4.750035	cowboy	-0.050543457
-4.750035	breed	-0.050543457
-4.149158	cattle	-0.050543427
-4.750035	magpies	-0.050543457
-4.397137	phenomenon	-0.050543457
-4.750035	substantially	-0.050543457
-4.750035	inflated	-0.050543457
-4.397137	realize	-0.050543457
-4.750035	'm	-0.050543427
-4.750035	search	-0.050543457
-4.750035	cobbler	-0.050543457
-4.149158	shop	-0.050543427
-4.750035	navigate	-0.050543457
-4.397137	places	-0.050543457
-4.750035	flaxseed	-0.050543457
-4.750035	poultices	-0.050543457
-4.750035	plasters	-0.050543457
-4.397137	persons	-0.050543457
-4.397137	drew	-0.050543457
-4.397137	ground	-0.050543457
-4.750035	pansies	-0.050543457
-4.750035	gluttons	-0.050543457
-4.750035	represent	-0.050543457
-4.750035	regenerating	-0.050543457
-4.750035	fibers	-0.050543457
-4.750035	dress	-0.050543457
-4.750035	chroniclers	-0.050543457
-4.397137	poets	-0.050543457
-4.750035	prose	-0.050543457
-4.750035	novelists	-0.050543457
-4.750035	explanation	-0.050543457
-4.750035	partly	-0.050543457
-3.394188	true	-0.11946921
-4.750035	talking	-0.050543457
-4.750035	main	-0.050543457
-4.750035	probabilities	-0.050543457
-4.750035	risks	-0.050543457
-4.750035	danger	-0.050543457
-4.750035	engulfed	-0.050543457
-4.750035	bedlam	-0.050543457
-4.750035	teaching	-0.050543457
-4.750035	guides	-0.050543457
-4.397137	included	-0.050543457
-4.149158	thousand	-0.050543427
-4.397137	dollars	-0.050543457
-3.6248827	days	-0.15852182
-4.750035	fix	-0.050543457
-4.397137	reception	-0.050543457
-4.750035	shielding	-0.050543457
-4.397137	radiation	-0.050543457
-4.750035	meant	-0.050543457
-4.397137	spirit	-0.050543457
-4.750035	wipe	-0.050543457
-4.750035	fingerprints	-0.050543457
-3.8984072	nor	-0.050543457
-4.397137	manners	-0.050543457
-4.750035	barbaric	-0.050543457
-4.397137	helps	-0.050543457
-4.750035	calm	-0.050543457
-4.750035	assuring	-0.050543457
-4.149158	peace	-0.050543427
-4.149158	yours	-0.12780866
-4.397137	aim	-0.050543457
-4.397137	learn	-0.050543427
-3.5336893	feel	-0.050543457
-4.750035	cigar	-0.050543457
-4.397137	mile	-0.050543457
-4.750035	duplicate	-0.050543457
-4.149158	blow	-0.050543427
-4.750035	encountered	-0.050543457
-4.750035	silky	-0.050543457
-4.750035	pity	-0.050543457
-4.750035	loneliness	-0.050543457
-3.8984072	beautiful	-0.050543457
-4.750035	chairs	-0.050543457
-4.750035	cabinets	-0.050543457
-4.750035	chests	-0.050543457
-4.750035	houses	-0.050543457
-4.750035	etc	-0.050543457
-4.750035	overweight	-0.050543457
-4.750035	charmer	-0.050543457
-4.750035	slip	-0.050543457
-4.750035	poison	-0.050543457
-4.149158	tea	-0.12780866
-4.750035	hoarse	-0.050543457
-4.750035	yelled	-0.050543457
-4.750035	sixty	-0.050543457
-4.397137	murmured	-0.050543457
-4.750035	firmness	-0.050543457
-4.397137	surrender	-0.050543457
-4.397137	wet	-0.050543457
-4.149158	boat	-0.050543427
-4.750035	anchor	-0.050543457
-4.149158	cars	-0.050543427
-4.750035	crest	-0.050543457
-4.750035	chrome	-0.050543457
-4.149158	glass	-0.050543427
-4.750035	flashing	-0.050543457
-4.149158	formula	-0.050543427
-4.750035	equation	-0.050543457
-4.750035	glimpse	-0.050543457
-4.750035	ranch	-0.050543457
-4.750035	brushy	-0.050543457
-4.750035	swells	-0.050543457
-4.750035	technique	-0.050543457
-4.750035	genuinely	-0.050543457
-4.750035	masterful	-0.050543457
-4.750035	mike	-0.050543457
-4.750035	legal	-0.050543457
-3.740458	age	-0.15852182
-4.750035	presumed	-0.050543457
-4.397137	defend	-0.17229345
-4.750035	clinches	-0.050543457
-4.750035	shaker	-0.050543457
-4.750035	upside	-0.050543457
-4.750035	elementaryschool	-0.050543457
-4.149158	grows	-0.050543427
-4.750035	groups	-0.050543457
-4.397137	admitted	-0.050543457
-4.750035	buddies	-0.050543457
-4.397137	invariably	-0.050543457
-4.397137	advantage	-0.17229345
-4.750035	bristles	-0.050543457
-4.397137	massage	-0.050543457
-4.750035	gums	-0.050543457
-4.750035	scratch	-0.050543457
-4.750035	enamel	-0.050543457
-4.397137	honest	-0.050543457
-4.750035	discard	-0.050543457
-4.397137	petty	-0.050543457
-4.750035	jealousies	-0.050543457
-4.750035	unbeatable	-0.050543457
-4.750035	define	-0.050543457
-3.740458	showed	-0.050543457
-4.750035	utmost	-0.050543457
-4.397137	advised	-0.050543457
-4.397137	threw	-0.050543457
-4.750035	tidbits	-0.050543457
-4.750035	overboard	-0.050543457
-4.750035	overlapping	-0.050543457
-4.750035	twisted	-0.050543457
-4.750035	widely	-0.050543457
-4.750035	spaced	-0.050543457
-4.750035	virus	-0.050543457
-4.750035	scream	-0.050543457
-4.750035	latches	-0.050543457
-4.397137	davy	-0.050543457
-4.750035	mathews	-0.050543457
-4.750035	disgusting	-0.050543457
-4.750035	thermonuclear	-0.050543457
-3.740458	war	-0.050543457
-4.397137	accident	-0.050543457
-4.397137	sunburn	-0.050543457
-3.8984072	moved	-0.050543457
-4.750035	skiffs	-0.050543457
-4.750035	shocking	-0.050543457
-4.750035	elbowing	-0.050543457
-4.750035	shoving	-0.050543457
-4.750035	ambassador	-0.050543457
-4.750035	suite	-0.050543457
-4.750035	jagged	-0.050543457
-4.750035	blackened	-0.050543457
-4.750035	brick	-0.050543457
-4.750035	species	-0.050543457
-4.397137	ambiguity	-0.050543457
-4.750035	tries	-0.050543457
-4.750035	baffle	-0.050543457
-4.750035	interweaving	-0.050543457
-4.750035	repetition	-0.050543457
-4.750035	weary	-0.050543457
-4.750035	scattered	-0.050543457
-4.149158	somewhat	-0.050543427
-4.750035	herd	-0.050543457
-4.149158	loose	-0.050543427
-4.750035	ventures	-0.050543457
-4.149158	everyone	-0.12780866
-4.750035	agreed	-0.050543457
-4.750035	bushel	-0.050543457
-4.750035	c'mon	-0.050543457
-4.750035	whispered	-0.050543457
-3.8984072	fall	-0.050543457
-4.397137	vigorous	-0.050543457
-3.8984072	existed	-0.10716594
-4.750035	skiing	-0.050543457
-4.750035	skating	-0.050543457
-4.750035	sports	-0.050543457
-4.750035	overnight	-0.050543457
-4.750035	hiking	-0.050543457
-4.750035	park	-0.050543457
-4.750035	views	-0.050543457
-4.750035	scenery	-0.050543457
-4.397137	particularly	-0.050543457
-4.750035	suspect	-0.050543457
-4.750035	sprouted	-0.050543457
-4.397137	grains	-0.050543457
-4.750035	salads	-0.050543457
-4.397137	dishes	-0.050543457
-4.750035	suey	-0.050543457
-4.750035	purists	-0.050543457
-4.397137	canned	-0.17229345
-4.397137	vegetables	-0.050543457
-4.750035	making	-0.050543457
-4.750035	stew	-0.050543457
-4.750035	coauthors	-0.050543457
-4.397137	book	-0.050543457
-4.750035	haughty	-0.050543457
-4.750035	motivates	-0.050543457
-4.397137	behavior	-0.050543427
-4.750035	slug	-0.050543457
-4.750035	torn	-0.050543457
-4.750035	stirrupguard	-0.050543457
-4.750035	boston	-0.050543457
-4.397137	ballet	-0.050543457
-4.750035	overcame	-0.050543457
-4.750035	funding	-0.050543457
-4.750035	ducks	-0.050543457
-4.750035	webbed	-0.050543457
-4.750035	feathers	-0.050543457
-4.750035	preoccupied	-0.050543457
-4.397137	dim	-0.050543457
-4.750035	cardboard	-0.050543457
-4.397137	pattern	-0.050543457
-4.750035	fit	-0.050543457
-4.750035	holder	-0.050543457
-4.149158	prevent	-0.050543427
-4.750035	warping	-0.050543457
-4.750035	oh	-0.050543457
-4.750035	managed	-0.050543457
-4.750035	swig	-0.050543457
-3.8984072	single	-0.050543457
-4.750035	curve	-0.050543457
-4.750035	represents	-0.050543457
-4.750035	formulation	-0.050543457
-4.397137	test	-0.050543457
-4.750035	valiant	-0.050543457
-4.750035	pitiable	-0.050543457
-4.750035	aids	-0.050543457
-4.750035	preventing	-0.050543457
-4.750035	foamy	-0.050543457
-4.750035	bloat	-0.050543457
-4.750035	retouching	-0.050543457
-4.750035	straightened	-0.050543457
-4.750035	alert	-0.050543457
-4.750035	buffalo	-0.050543457
-4.750035	hunter	-0.050543457
-4.397137	closer	-0.050543457
-4.397137	chuck	-0.050543457
-4.397137	key	-0.050543457
-4.397137	rattlesnake	-0.050543457
-4.750035	sputniks	-0.050543457
-4.397137	balloons	-0.050543457
-4.750035	derived	-0.050543457
-4.397137	extensive	-0.050543457
-4.750035	skywave	-0.050543457
-4.750035	inaugural	-0.050543457
-4.750035	feast	-0.050543457
-4.750035	sponsors	-0.050543457
-4.750035	damp	-0.050543457
-4.397137	circumstances	-0.050543457
-4.750035	oddson	-0.050543457
-4.750035	bet	-0.050543457
-4.149158	develop	-0.050543427
-4.750035	pneumonia	-0.050543457
-4.149158	neither	-0.050543457
-4.750035	acknowledged	-0.050543457
-4.750035	snatched	-0.050543457
-4.750035	savagely	-0.050543457
-4.750035	hopeful	-0.050543457
-4.149158	sign	-0.050543457
-3.8984072	hate	-0.050543457
-4.750035	labeled	-0.050543457
-4.397137	burn	-0.050543457
-3.8984072	whole	-0.050543457
-4.750035	mountainside	-0.050543457
-4.750035	size	-0.050543457
-4.750035	orchestra	-0.050543457
-4.397137	obviously	-0.050543457
-4.750035	mettle	-0.050543457
-4.750035	responsively	-0.050543457
-3.8984072	ten	-0.087460026
-4.750035	reply	-0.050543457
-4.750035	furnish	-0.050543457
-4.397137	proof	-0.17229345
-4.397137	modern	-0.050543457
-4.149158	message	-0.050543427
-4.750035	sending	-0.050543457
-4.750035	monitored	-0.050543457
-4.397137	tough	-0.050543457
-4.750035	grotesque	-0.050543457
-4.149158	hen	-0.050543427
-4.750035	tall	-0.050543457
-4.750035	barrels	-0.050543457
-4.149158	pointing	-0.050543427
-4.750035	unwaveringly	-0.050543457
-4.149158	looks	-0.12780866
-4.750035	heap	-0.050543457
-4.750035	quince	-0.050543457
-4.149158	seed	-0.12780866
-4.750035	gum	-0.050543457
-4.750035	ingredient	-0.050543457
-4.750035	wavesetting	-0.050543457
-4.750035	lotions	-0.050543457
-4.750035	urging	-0.050543457
-4.750035	decadent	-0.050543457
-4.750035	themes	-0.050543457
-4.750035	fewer	-0.050543457
-4.750035	prizes	-0.050543457
-4.397137	ourselves	-0.050543457
-4.750035	wagons	-0.050543457
-4.397137	burning	-0.050543457
-4.750035	fiercely	-0.050543457
-4.750035	chuckled	-0.050543457
-4.750035	memory	-0.050543457
-4.397137	vivid	-0.050543457
-4.750035	retaliatory	-0.050543457
-4.397137	attack	-0.050543457
-4.750035	month	-0.050543457
-4.750035	seventy	-0.050543457
-4.397137	per	-0.050543457
-4.750035	cent	-0.050543457
-4.750035	fullness	-0.050543457
-4.397137	evenly	-0.050543457
-4.750035	crossed	-0.050543457
-4.750035	meadow	-0.050543457
-4.397137	climbed	-0.050543427
-4.750035	tree	-0.050543457
-4.750035	jungle	-0.050543457
-4.750035	trail	-0.050543457
-4.750035	resumed	-0.050543457
-4.149158	poor	-0.050543457
-4.750035	unlucky	-0.050543457
-4.750035	telephone	-0.050543457
-4.750035	rang	-0.050543457
-4.149158	everything	-0.050543457
-4.397137	final	-0.050543427
-4.750035	reduced	-0.050543457
-4.750035	symbolism	-0.050543457
-4.750035	solicits	-0.050543457
-4.397137	phone	-0.050543457
-4.750035	mail	-0.050543457
-4.750035	dough	-0.050543457
-4.750035	kissed	-0.050543457
-3.8984072	deep	-0.050543457
-4.750035	tenderness	-0.050543457
-4.750035	print	-0.050543457
-4.750035	fiction	-0.050543457
-3.8984072	research	-0.050543457
-4.750035	cultures	-0.050543457
-4.750035	proven	-0.050543457
-4.750035	mistaken	-0.050543457
-4.750035	particular	-0.050543457
-4.750035	actions	-0.050543457
-4.149158	respect	-0.050543427
-4.750035	picket	-0.050543457
-4.397137	ships	-0.050543457
-4.397137	aristocratic	-0.050543457
-4.750035	coalblack	-0.050543457
-4.750035	suppose	-0.050543427
-4.750035	drawled	-0.050543457
-4.750035	amount	-0.050543457
-4.750035	ballyhoo	-0.050543457
-4.750035	cover	-0.050543457
-4.750035	sordid	-0.050543457
-4.750035	gracefully	-0.050543457
-4.149158	clumsy	-0.050543427
-4.149158	ingredients	-0.050543427
-4.750035	sincerity	-0.050543457
-4.750035	realism	-0.050543457
-3.6248827	indeed	-0.050543427
-4.750035	alkaline	-0.050543457
-4.397137	lovely	-0.050543457
-4.750035	pastime	-0.050543457
-4.750035	hooking	-0.050543457
-4.750035	braiding	-0.050543457
-4.750035	rugs	-0.050543457
-4.750035	shivering	-0.050543457
-4.750035	clothes	-0.050543457
-4.750035	jabbed	-0.050543457
-4.750035	accusingly	-0.050543457
-4.750035	coconuts	-0.050543457
-4.750035	rice	-0.050543457
-4.397137	wine	-0.050543457
-4.750035	gang	-0.050543457
-4.750035	belched	-0.050543457
-4.149158	loudly	-0.050543427
-4.750035	eruption	-0.050543457
-4.750035	miserable	-0.050543457
-4.397137	aloud	-0.17229345
-4.750035	profits	-0.050543457
-4.750035	losses	-0.050543457
-4.750035	swollen	-0.050543457
-4.750035	bursting	-0.050543457
-3.8984072	sugar	-0.10716594
-4.750035	spread	-0.050543457
-4.149158	lightly	-0.12780866
-4.750035	scored	-0.050543457
-4.149158	surface	-0.050543457
-4.149158	guy	-0.050543427
-4.750035	idolize	-0.050543457
-4.750035	hint	-0.050543457
-4.750035	violent	-0.050543457
-4.397137	struggle	-0.050543457
-4.397137	reached	-0.050543427
-4.397137	bath	-0.050543457
-4.397137	towel	-0.050543457
-4.750035	hanging	-0.050543457
-4.750035	rack	-0.050543457
-4.750035	tub	-0.050543457
-3.8984072	individual	-0.050543457
-4.149158	human	-0.050543427
-4.750035	pit	-0.050543457
-3.5336893	against	-0.0819902
-4.750035	inhuman	-0.050543457
-4.397137	condition	-0.050543457
-4.750035	soak	-0.050543457
-4.750035	lighter	-0.050543457
-4.397137	ha	-0.050543457
-4.750035	mates	-0.050543457
-4.750035	stirred	-0.050543457
-4.750035	waking	-0.050543457
-4.750035	manner	-0.050543457
-4.750035	entitle	-0.050543457
-4.397137	steam	-0.17229345
-4.397137	baths	-0.050543427
-4.397137	writes	-0.050543457
-4.750035	health	-0.050543457
-4.149158	same	-0.077932544
-3.8984072	shelter	-0.050543457
-4.750035	embankment	-0.050543457
-4.750035	ditches	-0.050543457
-4.750035	overeating	-0.050543457
-4.149158	result	-0.10716594
-4.750035	compulsion	-0.050543457
-4.149158	drug	-0.050543427
-4.397137	chemical	-0.050543457
-3.6248827	name	-0.077932544
-4.750035	dried	-0.050543457
-4.397137	rumen	-0.050543457
-4.750035	unhappy	-0.050543457
-4.750035	peach	-0.050543457
-4.750035	domestic	-0.050543457
-4.750035	washer	-0.050543457
-4.750035	equivalent	-0.050543457
-4.750035	upgrade	-0.050543457
-4.750035	status	-0.050543457
-4.750035	reflect	-0.050543427
-4.750035	drunkard	-0.050543457
-4.750035	outcast	-0.050543457
-4.750035	crab	-0.050543457
-4.750035	challenged	-0.050543457
-4.149158	quick	-0.09523541
-4.750035	stab	-0.050543457
-4.750035	vanquished	-0.050543457
-4.750035	murky	-0.050543457
-4.750035	lagoon	-0.050543457
-4.149158	miles	-0.050543427
-4.750035	assail	-0.050543457
-4.750035	expecting	-0.050543457
-4.750035	pendulum	-0.050543457
-4.397137	swing	-0.050543457
-4.397137	horizon	-0.12780866
-3.8984072	gives	-0.050543457
-4.750035	eyestrain	-0.050543457
-4.750035	trucks	-0.050543457
-4.750035	accepted	-0.050543457
-4.750035	produced	-0.050543457
-4.750035	clerk	-0.050543457
-4.750035	flickered	-0.050543457
-4.750035	mollusks	-0.050543457
-4.149158	case	-0.050543427
-4.397137	plane	-0.050543457
-4.750035	fivehundred	-0.050543457
-4.750035	pound	-0.050543457
-4.397137	bombs	-0.17229345
-4.149158	muscular	-0.12780866
-4.750035	symmetrical	-0.050543457
-4.750035	xray	-0.050543457
-4.750035	vertebral	-0.050543457
-4.750035	progression	-0.050543457
-4.750035	demineralization	-0.050543457
-4.397137	remain	-0.050543457
-4.397137	legs	-0.050543427
-4.750035	pumped	-0.050543457
-4.750035	furiously	-0.050543457
-4.750035	streamed	-0.050543457
-3.6248827	yes	-0.050543457
-4.750035	ma'am	-0.050543457
-4.750035	pursuing	-0.050543457
-4.750035	nonnonsense	-0.050543457
-3.740458	ai	-0.5244076
-4.397137	beauty	-0.050543457
-4.750035	barb	-0.050543457
-4.397137	gold	-0.050543457
-4.750035	bracelet	-0.050543457
-4.750035	graduation	-0.050543457
-4.750035	nonprofit	-0.050543457
-4.397137	organizations	-0.050543457
-4.750035	frequent	-0.050543457
-4.750035	fund	-0.050543457
-4.750035	raisers	-0.050543457
